<?xml version="1.0"?>
<MethodSetup Method="BDT::BDTG4D3">
  <GeneralInfo>
    <Info name="TMVA Release" value="4.2.1 [262657]"/>
    <Info name="ROOT Release" value="6.14/09 [396809]"/>
    <Info name="Creator" value="sblancof"/>
    <Info name="Date" value="Thu Jan 12 10:38:36 2023"/>
    <Info name="Host" value="Linux cmsbuilder10.cern.ch 2.6.32-754.12.1.el6.x86_64 #1 SMP Thu Apr 11 11:50:45 CEST 2019 x86_64 x86_64 x86_64 GNU/Linux"/>
    <Info name="Dir" value="/afs/cern.ch/work/s/sblancof/private/CMSSW_10_6_4/src/PlotsConfigurations/Configurations/WW/UL/GGF_DNN"/>
    <Info name="Training events" value="1308548"/>
    <Info name="TrainingTime" value="4.85276127e+02"/>
    <Info name="AnalysisType" value="Classification"/>
  </GeneralInfo>
  <Options>
    <Option name="V" modified="Yes">False</Option>
    <Option name="VerbosityLevel" modified="No">Default</Option>
    <Option name="VarTransform" modified="No">None</Option>
    <Option name="H" modified="Yes">False</Option>
    <Option name="CreateMVAPdfs" modified="No">False</Option>
    <Option name="IgnoreNegWeightsInTraining" modified="No">False</Option>
    <Option name="NTrees" modified="Yes">500</Option>
    <Option name="MaxDepth" modified="Yes">3</Option>
    <Option name="MinNodeSize" modified="Yes">1.5%</Option>
    <Option name="nCuts" modified="Yes">500</Option>
    <Option name="BoostType" modified="Yes">Grad</Option>
    <Option name="AdaBoostR2Loss" modified="No">quadratic</Option>
    <Option name="UseBaggedBoost" modified="Yes">True</Option>
    <Option name="Shrinkage" modified="Yes">5.000000e-02</Option>
    <Option name="AdaBoostBeta" modified="No">5.000000e-01</Option>
    <Option name="UseRandomisedTrees" modified="No">False</Option>
    <Option name="UseNvars" modified="No">3</Option>
    <Option name="UsePoissonNvars" modified="No">True</Option>
    <Option name="BaggedSampleFraction" modified="No">5.000000e-01</Option>
    <Option name="UseYesNoLeaf" modified="No">True</Option>
    <Option name="NegWeightTreatment" modified="No">pray</Option>
    <Option name="Css" modified="No">1.000000e+00</Option>
    <Option name="Cts_sb" modified="No">1.000000e+00</Option>
    <Option name="Ctb_ss" modified="No">1.000000e+00</Option>
    <Option name="Cbb" modified="No">1.000000e+00</Option>
    <Option name="NodePurityLimit" modified="No">5.000000e-01</Option>
    <Option name="SeparationType" modified="No">giniindex</Option>
    <Option name="RegressionLossFunctionBDTG" modified="No">huber</Option>
    <Option name="HuberQuantile" modified="No">7.000000e-01</Option>
    <Option name="DoBoostMonitor" modified="No">False</Option>
    <Option name="UseFisherCuts" modified="No">False</Option>
    <Option name="MinLinCorrForFisher" modified="No">8.000000e-01</Option>
    <Option name="UseExclusiveVars" modified="No">False</Option>
    <Option name="DoPreselection" modified="No">False</Option>
    <Option name="SigToBkgFraction" modified="No">1.000000e+00</Option>
    <Option name="PruneMethod" modified="No">nopruning</Option>
    <Option name="PruneStrength" modified="No">0.000000e+00</Option>
    <Option name="PruningValFraction" modified="No">5.000000e-01</Option>
    <Option name="SkipNormalization" modified="No">False</Option>
    <Option name="nEventsMin" modified="No">0</Option>
    <Option name="UseBaggedGrad" modified="No">False</Option>
    <Option name="GradBaggingFraction" modified="Yes">5.000000e-01</Option>
    <Option name="UseNTrainEvents" modified="No">0</Option>
    <Option name="NNodesMax" modified="No">0</Option>
  </Options>
  <Variables NVar="10">
    <Variable VarIndex="0" Expression="dphilmet1" Label="dphilmet1" Title="dphilmet1" Unit="" Internal="dphilmet1" Type="F" Min="0.00000000e+00" Max="3.14159060e+00"/>
    <Variable VarIndex="1" Expression="dphilmet2" Label="dphilmet2" Title="dphilmet2" Unit="" Internal="dphilmet2" Type="F" Min="0.00000000e+00" Max="3.14159131e+00"/>
    <Variable VarIndex="2" Expression="mpmet" Label="mpmet" Title="mpmet" Unit="" Internal="mpmet" Type="F" Min="0.00000000e+00" Max="6.79010437e+02"/>
    <Variable VarIndex="3" Expression="mll" Label="mll" Title="mll" Unit="" Internal="mll" Type="F" Min="4.42727543e-02" Max="2.07028516e+03"/>
    <Variable VarIndex="4" Expression="mth" Label="mth" Title="mth" Unit="" Internal="mth" Type="F" Min="0.00000000e+00" Max="2.33433154e+03"/>
    <Variable VarIndex="5" Expression="mtw1" Label="mtw1" Title="mtw1" Unit="" Internal="mtw1" Type="F" Min="0.00000000e+00" Max="2.47332202e+03"/>
    <Variable VarIndex="6" Expression="mtw2" Label="mtw2" Title="mtw2" Unit="" Internal="mtw2" Type="F" Min="0.00000000e+00" Max="6.23235168e+02"/>
    <Variable VarIndex="7" Expression="ptll" Label="ptll" Title="ptll" Unit="" Internal="ptll" Type="F" Min="1.42796896e-02" Max="1.18056641e+03"/>
    <Variable VarIndex="8" Expression="drll" Label="drll" Title="drll" Unit="" Internal="drll" Type="F" Min="1.56326278e-03" Max="5.66993093e+00"/>
    <Variable VarIndex="9" Expression="detall" Label="detall" Title="detall" Unit="" Internal="detall" Type="F" Min="0.00000000e+00" Max="4.85693359e+00"/>
  </Variables>
  <Spectators NSpec="0"/>
  <Classes NClass="2">
    <Class Name="Signal" Index="0"/>
    <Class Name="Background" Index="1"/>
  </Classes>
  <Transformations NTransformations="0"/>
  <MVAPdfs/>
  <Weights NTrees="500" AnalysisType="1">
    <BinaryTree type="DecisionTree" boostWeight="1.0000000000000000e+00" itree="0">
      <Node pos="s" depth="0" NCoef="0" IVar="8" Cut="2.4067230224609375e+00" cType="1" res="-6.3218519790098071e-04" rms="4.9999961256980896e-01" purity="4.9936780333518982e-01" nType="0">
        <Node pos="l" depth="1" NCoef="0" IVar="3" Cut="6.8039756774902344e+01" cType="1" res="3.2898131012916565e-01" rms="3.7652528285980225e-01" purity="8.2898133993148804e-01" nType="0">
          <Node pos="l" depth="2" NCoef="0" IVar="4" Cut="3.3087097167968750e+01" cType="1" res="3.6647552251815796e-01" rms="3.4014070034027100e-01" purity="8.6647558212280273e-01" nType="0">
            <Node pos="l" depth="3" NCoef="0" IVar="-1" Cut="0.0000000000000000e+00" cType="1" res="-3.7558395415544510e-03" rms="4.9858736991882324e-01" purity="4.6244159340858459e-01" nType="-99"/>
            <Node pos="r" depth="3" NCoef="0" IVar="-1" Cut="0.0000000000000000e+00" cType="1" res="3.9234846830368042e-02" rms="3.0993980169296265e-01" purity="8.9234846830368042e-01" nType="-99"/>
          </Node>
          <Node pos="r" depth="2" NCoef="0" IVar="-1" Cut="0.0000000000000000e+00" cType="1" res="-3.0600234866142273e-02" rms="3.9542704820632935e-01" purity="1.9399763643741608e-01" nType="-99"/>
        </Node>
        <Node pos="r" depth="1" NCoef="0" IVar="8" Cut="2.8999471664428711e+00" cType="1" res="-3.4343257546424866e-01" rms="3.6339244246482849e-01" purity="1.5656740963459015e-01" nType="0">
          <Node pos="l" depth="2" NCoef="0" IVar="3" Cut="8.3642913818359375e+01" cType="1" res="-1.8913236260414124e-01" rms="4.6284872293472290e-01" purity="3.1086763739585876e-01" nType="0">
            <Node pos="l" depth="3" NCoef="0" IVar="-1" Cut="0.0000000000000000e+00" cType="1" res="-1.2531770393252373e-02" rms="4.8404076695442200e-01" purity="3.7468230724334717e-01" nType="-99"/>
            <Node pos="r" depth="3" NCoef="0" IVar="-1" Cut="0.0000000000000000e+00" cType="1" res="-4.7549866139888763e-02" rms="1.5459951758384705e-01" purity="2.4501329287886620e-02" nType="-99"/>
          </Node>
          <Node pos="r" depth="2" NCoef="0" IVar="4" Cut="2.7956066131591797e+01" cType="1" res="-4.1637939214706421e-01" rms="2.7681800723075867e-01" purity="8.3620615303516388e-02" nType="0">
            <Node pos="l" depth="3" NCoef="0" IVar="-1" Cut="0.0000000000000000e+00" cType="1" res="-4.4712480157613754e-02" rms="2.2378429770469666e-01" purity="5.2875194698572159e-02" nType="-99"/>
            <Node pos="r" depth="3" NCoef="0" IVar="-1" Cut="0.0000000000000000e+00" cType="1" res="-3.6440834403038025e-02" rms="3.4235444664955139e-01" purity="1.3559167087078094e-01" nType="-99"/>
          </Node>
        </Node>
      </Node>
    </BinaryTree>
    <BinaryTree type="DecisionTree" boostWeight="1.0000000000000000e+00" itree="1">
      <Node pos="s" depth="0" NCoef="0" IVar="8" Cut="2.3752927780151367e+00" cType="1" res="6.1336887301877141e-04" rms="4.8625484108924866e-01" purity="5.0059294700622559e-01" nType="0">
        <Node pos="l" depth="1" NCoef="0" IVar="3" Cut="6.6043090820312500e+01" cType="1" res="3.1855222582817078e-01" rms="3.6683958768844604e-01" purity="8.3516746759414673e-01" nType="0">
          <Node pos="l" depth="2" NCoef="0" IVar="4" Cut="3.5441234588623047e+01" cType="1" res="3.5519847273826599e-01" rms="3.3091163635253906e-01" purity="8.7358188629150391e-01" nType="0">
            <Node pos="l" depth="3" NCoef="0" IVar="-1" Cut="0.0000000000000000e+00" cType="1" res="-1.9727899052668363e-04" rms="4.9939760565757751e-01" purity="4.9791327118873596e-01" nType="-99"/>
            <Node pos="r" depth="3" NCoef="0" IVar="-1" Cut="0.0000000000000000e+00" cType="1" res="3.7941630929708481e-02" rms="3.0206850171089172e-01" purity="8.9844018220901489e-01" nType="-99"/>
          </Node>
          <Node pos="r" depth="2" NCoef="0" IVar="3" Cut="7.6341522216796875e+01" cType="1" res="-2.5017341971397400e-01" rms="4.2347535490989685e-01" purity="2.3900187015533447e-01" nType="0">
            <Node pos="l" depth="3" NCoef="0" IVar="-1" Cut="0.0000000000000000e+00" cType="1" res="-7.7470266260206699e-03" rms="4.9093317985534668e-01" purity="4.1635930538177490e-01" nType="-99"/>
            <Node pos="r" depth="3" NCoef="0" IVar="-1" Cut="0.0000000000000000e+00" cType="1" res="-4.1950963437557220e-02" rms="2.4755978584289551e-01" purity="6.5587580204010010e-02" nType="-99"/>
          </Node>
        </Node>
        <Node pos="r" depth="1" NCoef="0" IVar="8" Cut="2.8077909946441650e+00" cType="1" res="-3.1999781727790833e-01" rms="3.6666908860206604e-01" purity="1.6320632398128510e-01" nType="0">
          <Node pos="l" depth="2" NCoef="0" IVar="3" Cut="8.1309104919433594e+01" cType="1" res="-1.3502909243106842e-01" rms="4.7623395919799805e-01" purity="3.5640123486518860e-01" nType="0">
            <Node pos="l" depth="3" NCoef="0" IVar="-1" Cut="0.0000000000000000e+00" cType="1" res="-6.1838212423026562e-03" rms="4.9490347504615784e-01" purity="4.3285816907882690e-01" nType="-99"/>
            <Node pos="r" depth="3" NCoef="0" IVar="-1" Cut="0.0000000000000000e+00" cType="1" res="-4.4500052928924561e-02" rms="1.7921705543994904e-01" purity="3.3617541193962097e-02" nType="-99"/>
          </Node>
          <Node pos="r" depth="2" NCoef="0" IVar="4" Cut="2.9971736907958984e+01" cType="1" res="-3.8376346230506897e-01" rms="2.9453036189079285e-01" purity="9.6604786813259125e-02" nType="0">
            <Node pos="l" depth="3" NCoef="0" IVar="-1" Cut="0.0000000000000000e+00" cType="1" res="-4.2105343192815781e-02" rms="2.3487810790538788e-01" purity="5.8777038007974625e-02" nType="-99"/>
            <Node pos="r" depth="3" NCoef="0" IVar="-1" Cut="0.0000000000000000e+00" cType="1" res="-3.1848434358835220e-02" rms="3.6990544199943542e-01" purity="1.6463419795036316e-01" nType="-99"/>
          </Node>
        </Node>
      </Node>
    </BinaryTree>
    <BinaryTree type="DecisionTree" boostWeight="1.0000000000000000e+00" itree="2">
      <Node pos="s" depth="0" NCoef="0" IVar="8" Cut="2.4004585742950439e+00" cType="1" res="6.0810230206698179e-04" rms="4.7341415286064148e-01" purity="5.0067526102066040e-01" nType="0">
        <Node pos="l" depth="1" NCoef="0" IVar="3" Cut="6.4827697753906250e+01" cType="1" res="2.9762730002403259e-01" rms="3.6727350950241089e-01" purity="8.2966917753219604e-01" nType="0">
          <Node pos="l" depth="2" NCoef="0" IVar="4" Cut="3.8173168182373047e+01" cType="1" res="3.3659291267395020e-01" rms="3.3072987198829651e-01" purity="8.7248116731643677e-01" nType="0">
            <Node pos="l" depth="3" NCoef="0" IVar="-1" Cut="0.0000000000000000e+00" cType="1" res="1.0311844525858760e-03" rms="4.9786981940269470e-01" purity="5.1356756687164307e-01" nType="-99"/>
            <Node pos="r" depth="3" NCoef="0" IVar="-1" Cut="0.0000000000000000e+00" cType="1" res="3.6371920257806778e-02" rms="3.0001005530357361e-01" purity="8.9995729923248291e-01" nType="-99"/>
          </Node>
          <Node pos="r" depth="2" NCoef="0" IVar="3" Cut="7.7572601318359375e+01" cType="1" res="-2.0834562182426453e-01" rms="4.3633091449737549e-01" purity="2.7375090122222900e-01" nType="0">
            <Node pos="l" depth="3" NCoef="0" IVar="-1" Cut="0.0000000000000000e+00" cType="1" res="-5.0493404269218445e-03" rms="4.9279731512069702e-01" purity="4.4538819789886475e-01" nType="-99"/>
            <Node pos="r" depth="3" NCoef="0" IVar="-1" Cut="0.0000000000000000e+00" cType="1" res="-4.2102340608835220e-02" rms="2.0719955861568451e-01" purity="4.5049868524074554e-02" nType="-99"/>
          </Node>
        </Node>
        <Node pos="r" depth="1" NCoef="0" IVar="8" Cut="2.8768494129180908e+00" cType="1" res="-3.0832257866859436e-01" rms="3.6018612980842590e-01" purity="1.5848758816719055e-01" nType="0">
          <Node pos="l" depth="2" NCoef="0" IVar="3" Cut="8.1212844848632812e+01" cType="1" res="-1.5733064711093903e-01" rms="4.6362090110778809e-01" purity="3.2437506318092346e-01" nType="0">
            <Node pos="l" depth="3" NCoef="0" IVar="-1" Cut="0.0000000000000000e+00" cType="1" res="-9.3275951221585274e-03" rms="4.8782384395599365e-01" purity="3.9463311433792114e-01" nType="-99"/>
            <Node pos="r" depth="3" NCoef="0" IVar="-1" Cut="0.0000000000000000e+00" cType="1" res="-4.2515989392995834e-02" rms="1.8162684142589569e-01" purity="3.4523993730545044e-02" nType="-99"/>
          </Node>
          <Node pos="r" depth="2" NCoef="0" IVar="3" Cut="9.1649787902832031e+01" cType="1" res="-3.7391397356987000e-01" rms="2.8020069003105164e-01" purity="8.6425542831420898e-02" nType="0">
            <Node pos="l" depth="3" NCoef="0" IVar="-1" Cut="0.0000000000000000e+00" cType="1" res="-3.5825729370117188e-02" rms="3.0381548404693604e-01" purity="1.0375416278839111e-01" nType="-99"/>
            <Node pos="r" depth="3" NCoef="0" IVar="-1" Cut="0.0000000000000000e+00" cType="1" res="-4.6248596161603928e-02" rms="6.0511592775583267e-02" purity="3.6417846567928791e-03" nType="-99"/>
          </Node>
        </Node>
      </Node>
    </BinaryTree>
    <BinaryTree type="DecisionTree" boostWeight="1.0000000000000000e+00" itree="3">
      <Node pos="s" depth="0" NCoef="0" IVar="8" Cut="2.3712785243988037e+00" cType="1" res="-9.3424646183848381e-04" rms="4.6144211292266846e-01" purity="4.9906659126281738e-01" nType="0">
        <Node pos="l" depth="1" NCoef="0" IVar="3" Cut="6.3501525878906250e+01" cType="1" res="2.8626519441604614e-01" rms="3.6015862226486206e-01" purity="8.3385676145553589e-01" nType="0">
          <Node pos="l" depth="2" NCoef="0" IVar="4" Cut="3.1657318115234375e+01" cType="1" res="3.2376837730407715e-01" rms="3.2491075992584229e-01" purity="8.7678420543670654e-01" nType="0">
            <Node pos="l" depth="3" NCoef="0" IVar="-1" Cut="0.0000000000000000e+00" cType="1" res="-3.1776833347976208e-03" rms="4.9889403581619263e-01" purity="4.6676248311996460e-01" nType="-99"/>
            <Node pos="r" depth="3" NCoef="0" IVar="-1" Cut="0.0000000000000000e+00" cType="1" res="3.4780651330947876e-02" rms="3.0046299099922180e-01" purity="8.9943772554397583e-01" nType="-99"/>
          </Node>
          <Node pos="r" depth="2" NCoef="0" IVar="3" Cut="7.3474266052246094e+01" cType="1" res="-1.8442937731742859e-01" rms="4.3997183442115784e-01" purity="2.9508382081985474e-01" nType="0">
            <Node pos="l" depth="3" NCoef="0" IVar="-1" Cut="0.0000000000000000e+00" cType="1" res="-1.4417803613469005e-03" rms="4.9509519338607788e-01" purity="4.9405822157859802e-01" nType="-99"/>
            <Node pos="r" depth="3" NCoef="0" IVar="-1" Cut="0.0000000000000000e+00" cType="1" res="-3.6510240286588669e-02" rms="2.8062602877616882e-01" purity="8.8355459272861481e-02" nType="-99"/>
          </Node>
        </Node>
        <Node pos="r" depth="1" NCoef="0" IVar="8" Cut="2.7729303836822510e+00" cType="1" res="-2.8929296135902405e-01" rms="3.6126455664634705e-01" purity="1.6292500495910645e-01" nType="0">
          <Node pos="l" depth="2" NCoef="0" IVar="3" Cut="8.0096931457519531e+01" cType="1" res="-1.0684999078512192e-01" rms="4.7547379136085510e-01" purity="3.7120339274406433e-01" nType="0">
            <Node pos="l" depth="3" NCoef="0" IVar="-1" Cut="0.0000000000000000e+00" cType="1" res="-3.7100415211170912e-03" rms="4.9647298455238342e-01" purity="4.5109531283378601e-01" nType="-99"/>
            <Node pos="r" depth="3" NCoef="0" IVar="-1" Cut="0.0000000000000000e+00" cType="1" res="-4.0171712636947632e-02" rms="1.9651889801025391e-01" purity="4.1270930320024490e-02" nType="-99"/>
          </Node>
          <Node pos="r" depth="2" NCoef="0" IVar="4" Cut="2.9212747573852539e+01" cType="1" res="-3.4413698315620422e-01" rms="2.9794484376907349e-01" purity="1.0031461715698242e-01" nType="0">
            <Node pos="l" depth="3" NCoef="0" IVar="-1" Cut="0.0000000000000000e+00" cType="1" res="-3.8786426186561584e-02" rms="2.3540908098220825e-01" purity="5.9255450963973999e-02" nType="-99"/>
            <Node pos="r" depth="3" NCoef="0" IVar="-1" Cut="0.0000000000000000e+00" cType="1" res="-2.8376024216413498e-02" rms="3.7088543176651001e-01" purity="1.6831848025321960e-01" nType="-99"/>
          </Node>
        </Node>
      </Node>
    </BinaryTree>
    <BinaryTree type="DecisionTree" boostWeight="1.0000000000000000e+00" itree="4">
      <Node pos="s" depth="0" NCoef="0" IVar="8" Cut="2.3760979175567627e+00" cType="1" res="-4.5435907668434083e-04" rms="4.5041236281394958e-01" purity="4.9960112571716309e-01" nType="0">
        <Node pos="l" depth="1" NCoef="0" IVar="3" Cut="6.0243953704833984e+01" cType="1" res="2.7166315913200378e-01" rms="3.5692155361175537e-01" purity="8.3342611789703369e-01" nType="0">
          <Node pos="l" depth="2" NCoef="0" IVar="4" Cut="3.2760746002197266e+01" cType="1" res="3.1321784853935242e-01" rms="3.1734359264373779e-01" purity="8.8239216804504395e-01" nType="0">
            <Node pos="l" depth="3" NCoef="0" IVar="-1" Cut="0.0000000000000000e+00" cType="1" res="-1.3651208719238639e-03" rms="4.9962490797042847e-01" purity="4.8386812210083008e-01" nType="-99"/>
            <Node pos="r" depth="3" NCoef="0" IVar="-1" Cut="0.0000000000000000e+00" cType="1" res="3.3904403448104858e-02" rms="2.9301932454109192e-01" purity="9.0499073266983032e-01" nType="-99"/>
          </Node>
          <Node pos="r" depth="2" NCoef="0" IVar="3" Cut="7.3321479797363281e+01" cType="1" res="-1.1763864010572433e-01" rms="4.5789277553558350e-01" purity="3.7469172477722168e-01" nType="0">
            <Node pos="l" depth="3" NCoef="0" IVar="-1" Cut="0.0000000000000000e+00" cType="1" res="1.9383137114346027e-03" rms="4.8931103944778442e-01" purity="5.4789936542510986e-01" nType="-99"/>
            <Node pos="r" depth="3" NCoef="0" IVar="-1" Cut="0.0000000000000000e+00" cType="1" res="-3.5130672156810760e-02" rms="2.7889361977577209e-01" purity="8.7477624416351318e-02" nType="-99"/>
          </Node>
        </Node>
        <Node pos="r" depth="1" NCoef="0" IVar="8" Cut="2.8674511909484863e+00" cType="1" res="-2.7547043561935425e-01" rms="3.5872417688369751e-01" purity="1.6222025454044342e-01" nType="0">
          <Node pos="l" depth="2" NCoef="0" IVar="4" Cut="3.2751804351806641e+01" cType="1" res="-1.3480763137340546e-01" rms="4.6182268857955933e-01" purity="3.3233162760734558e-01" nType="0">
            <Node pos="l" depth="3" NCoef="0" IVar="-1" Cut="0.0000000000000000e+00" cType="1" res="-3.0546085909008980e-02" rms="3.7380743026733398e-01" purity="1.6873139142990112e-01" nType="-99"/>
            <Node pos="r" depth="3" NCoef="0" IVar="-1" Cut="0.0000000000000000e+00" cType="1" res="-3.1114693265408278e-03" rms="4.7959873080253601e-01" purity="4.3278104066848755e-01" nType="-99"/>
          </Node>
          <Node pos="r" depth="2" NCoef="0" IVar="8" Cut="3.0568525791168213e+00" cType="1" res="-3.3719715476036072e-01" rms="2.8118789196014404e-01" purity="8.7570726871490479e-02" nType="0">
            <Node pos="l" depth="3" NCoef="0" IVar="-1" Cut="0.0000000000000000e+00" cType="1" res="-2.8489189222455025e-02" rms="3.5343274474143982e-01" purity="1.4829620718955994e-01" nType="-99"/>
            <Node pos="r" depth="3" NCoef="0" IVar="-1" Cut="0.0000000000000000e+00" cType="1" res="-3.7322275340557098e-02" rms="2.3522168397903442e-01" purity="5.9229124337434769e-02" nType="-99"/>
          </Node>
        </Node>
      </Node>
    </BinaryTree>
    <BinaryTree type="DecisionTree" boostWeight="1.0000000000000000e+00" itree="5">
      <Node pos="s" depth="0" NCoef="0" IVar="8" Cut="2.3760979175567627e+00" cType="1" res="6.5416528377681971e-04" rms="4.4031792879104614e-01" purity="5.0048142671585083e-01" nType="0">
        <Node pos="l" depth="1" NCoef="0" IVar="3" Cut="6.6910156250000000e+01" cType="1" res="2.5883880257606506e-01" rms="3.5308879613876343e-01" purity="8.3393019437789917e-01" nType="0">
          <Node pos="l" depth="2" NCoef="0" IVar="4" Cut="3.6900726318359375e+01" cType="1" res="2.8805467486381531e-01" rms="3.2818549871444702e-01" purity="8.7135040760040283e-01" nType="0">
            <Node pos="l" depth="3" NCoef="0" IVar="-1" Cut="0.0000000000000000e+00" cType="1" res="-4.5358826173469424e-04" rms="4.9700540304183960e-01" purity="5.0117743015289307e-01" nType="-99"/>
            <Node pos="r" depth="3" NCoef="0" IVar="-1" Cut="0.0000000000000000e+00" cType="1" res="3.1880334019660950e-02" rms="3.0236321687698364e-01" purity="8.9744824171066284e-01" nType="-99"/>
          </Node>
          <Node pos="r" depth="2" NCoef="0" IVar="-1" Cut="0.0000000000000000e+00" cType="1" res="-2.2440761327743530e-02" rms="3.9931216835975647e-01" purity="2.2058680653572083e-01" nType="-99"/>
        </Node>
        <Node pos="r" depth="1" NCoef="0" IVar="8" Cut="2.8346943855285645e+00" cType="1" res="-2.5928926467895508e-01" rms="3.5899233818054199e-01" purity="1.6476114094257355e-01" nType="0">
          <Node pos="l" depth="2" NCoef="0" IVar="3" Cut="8.3789505004882812e+01" cType="1" res="-1.1470073461532593e-01" rms="4.6532130241394043e-01" purity="3.4798809885978699e-01" nType="0">
            <Node pos="l" depth="3" NCoef="0" IVar="-1" Cut="0.0000000000000000e+00" cType="1" res="-5.5292751640081406e-03" rms="4.8841369152069092e-01" purity="4.1834026575088501e-01" nType="-99"/>
            <Node pos="r" depth="3" NCoef="0" IVar="-1" Cut="0.0000000000000000e+00" cType="1" res="-4.0294203907251358e-02" rms="1.4809775352478027e-01" purity="2.2312160581350327e-02" nType="-99"/>
          </Node>
          <Node pos="r" depth="2" NCoef="0" IVar="4" Cut="3.3385997772216797e+01" cType="1" res="-3.1495571136474609e-01" rms="2.8979903459548950e-01" purity="9.4218939542770386e-02" nType="0">
            <Node pos="l" depth="3" NCoef="0" IVar="-1" Cut="0.0000000000000000e+00" cType="1" res="-3.5510007292032242e-02" rms="2.4252283573150635e-01" purity="6.3166067004203796e-02" nType="-99"/>
            <Node pos="r" depth="3" NCoef="0" IVar="-1" Cut="0.0000000000000000e+00" cType="1" res="-2.5988141074776649e-02" rms="3.6826997995376587e-01" purity="1.6481868922710419e-01" nType="-99"/>
          </Node>
        </Node>
      </Node>
    </BinaryTree>
    <BinaryTree type="DecisionTree" boostWeight="1.0000000000000000e+00" itree="6">
      <Node pos="s" depth="0" NCoef="0" IVar="8" Cut="2.4515812397003174e+00" cType="1" res="4.4990047172177583e-05" rms="4.3060976266860962e-01" purity="5.0025612115859985e-01" nType="0">
        <Node pos="l" depth="1" NCoef="0" IVar="3" Cut="6.2807090759277344e+01" cType="1" res="2.3726433515548706e-01" rms="3.5885319113731384e-01" purity="8.2112348079681396e-01" nType="0">
          <Node pos="l" depth="2" NCoef="0" IVar="4" Cut="3.6858886718750000e+01" cType="1" res="2.7467608451843262e-01" rms="3.2684412598609924e-01" purity="8.7066006660461426e-01" nType="0">
            <Node pos="l" depth="3" NCoef="0" IVar="-1" Cut="0.0000000000000000e+00" cType="1" res="-2.2181714884936810e-03" rms="4.9485781788825989e-01" purity="4.7927457094192505e-01" nType="-99"/>
            <Node pos="r" depth="3" NCoef="0" IVar="-1" Cut="0.0000000000000000e+00" cType="1" res="3.1131071969866753e-02" rms="2.9782634973526001e-01" purity="9.0110772848129272e-01" nType="-99"/>
          </Node>
          <Node pos="r" depth="2" NCoef="0" IVar="3" Cut="7.4374046325683594e+01" cType="1" res="-1.3991452753543854e-01" rms="4.4009330868721008e-01" purity="3.2170447707176208e-01" nType="0">
            <Node pos="l" depth="3" NCoef="0" IVar="-1" Cut="0.0000000000000000e+00" cType="1" res="6.7981582833454013e-04" rms="4.9277320504188538e-01" purity="5.1445615291595459e-01" nType="-99"/>
            <Node pos="r" depth="3" NCoef="0" IVar="-1" Cut="0.0000000000000000e+00" cType="1" res="-3.3393654972314835e-02" rms="2.7087917923927307e-01" purity="8.3266437053680420e-02" nType="-99"/>
          </Node>
        </Node>
        <Node pos="r" depth="1" NCoef="0" IVar="4" Cut="3.7274753570556641e+01" cType="1" res="-2.5968101620674133e-01" rms="3.4406250715255737e-01" purity="1.4894577860832214e-01" nType="0">
          <Node pos="l" depth="2" NCoef="0" IVar="4" Cut="2.1873762130737305e+01" cType="1" res="-3.1563532352447510e-01" rms="2.7525764703750610e-01" purity="8.5400804877281189e-02" nType="0">
            <Node pos="l" depth="3" NCoef="0" IVar="-1" Cut="0.0000000000000000e+00" cType="1" res="-3.5394094884395599e-02" rms="2.3353463411331177e-01" purity="5.8872114866971970e-02" nType="-99"/>
            <Node pos="r" depth="3" NCoef="0" IVar="-1" Cut="0.0000000000000000e+00" cType="1" res="-2.8427027165889740e-02" rms="3.3605366945266724e-01" purity="1.3519738614559174e-01" nType="-99"/>
          </Node>
          <Node pos="r" depth="2" NCoef="0" IVar="3" Cut="8.3577735900878906e+01" cType="1" res="-1.4713375270366669e-01" rms="4.3026211857795715e-01" purity="2.7676108479499817e-01" nType="0">
            <Node pos="l" depth="3" NCoef="0" IVar="-1" Cut="0.0000000000000000e+00" cType="1" res="2.3634808603674173e-03" rms="4.8862424492835999e-01" purity="4.6544170379638672e-01" nType="-99"/>
            <Node pos="r" depth="3" NCoef="0" IVar="-1" Cut="0.0000000000000000e+00" cType="1" res="-4.0088206529617310e-02" rms="1.1758270859718323e-01" purity="1.4071335084736347e-02" nType="-99"/>
          </Node>
        </Node>
      </Node>
    </BinaryTree>
    <BinaryTree type="DecisionTree" boostWeight="1.0000000000000000e+00" itree="7">
      <Node pos="s" depth="0" NCoef="0" IVar="8" Cut="2.4592888355255127e+00" cType="1" res="1.8799233657773584e-04" rms="4.2126116156578064e-01" purity="5.0014483928680420e-01" nType="0">
        <Node pos="l" depth="1" NCoef="0" IVar="3" Cut="6.2206707000732422e+01" cType="1" res="2.2502073645591736e-01" rms="3.5633859038352966e-01" purity="8.2000714540481567e-01" nType="0">
          <Node pos="l" depth="2" NCoef="0" IVar="4" Cut="3.9694183349609375e+01" cType="1" res="2.6233142614364624e-01" rms="3.2456633448600769e-01" purity="8.7174361944198608e-01" nType="0">
            <Node pos="l" depth="3" NCoef="0" IVar="-1" Cut="0.0000000000000000e+00" cType="1" res="-1.5794433420524001e-04" rms="4.9152910709381104e-01" purity="5.0795519351959229e-01" nType="-99"/>
            <Node pos="r" depth="3" NCoef="0" IVar="-1" Cut="0.0000000000000000e+00" cType="1" res="3.0264684930443764e-02" rms="2.9451456665992737e-01" purity="9.0366679430007935e-01" nType="-99"/>
          </Node>
          <Node pos="r" depth="2" NCoef="0" IVar="4" Cut="1.0758255004882812e+02" cType="1" res="-1.2340265512466431e-01" rms="4.4114038348197937e-01" purity="3.3687001466751099e-01" nType="0">
            <Node pos="l" depth="3" NCoef="0" IVar="-1" Cut="0.0000000000000000e+00" cType="1" res="-1.3105409452691674e-03" rms="4.7181677818298340e-01" purity="4.6423798799514771e-01" nType="-99"/>
            <Node pos="r" depth="3" NCoef="0" IVar="-1" Cut="0.0000000000000000e+00" cType="1" res="-3.7176061421632767e-02" rms="2.3539574444293976e-01" purity="6.8321861326694489e-02" nType="-99"/>
          </Node>
        </Node>
        <Node pos="r" depth="1" NCoef="0" IVar="4" Cut="3.4113670349121094e+01" cType="1" res="-2.4698022007942200e-01" rms="3.4102243185043335e-01" purity="1.4850653707981110e-01" nType="0">
          <Node pos="l" depth="2" NCoef="0" IVar="4" Cut="2.1721050262451172e+01" cType="1" res="-3.0439183115959167e-01" rms="2.6670682430267334e-01" purity="7.9429417848587036e-02" nType="0">
            <Node pos="l" depth="3" NCoef="0" IVar="-1" Cut="0.0000000000000000e+00" cType="1" res="-3.4293953329324722e-02" rms="2.3126134276390076e-01" purity="5.7630397379398346e-02" nType="-99"/>
            <Node pos="r" depth="3" NCoef="0" IVar="-1" Cut="0.0000000000000000e+00" cType="1" res="-2.7911324054002762e-02" rms="3.2793152332305908e-01" purity="1.2715059518814087e-01" nType="-99"/>
          </Node>
          <Node pos="r" depth="2" NCoef="0" IVar="3" Cut="8.6540809631347656e+01" cType="1" res="-1.4861774444580078e-01" rms="4.2231789231300354e-01" purity="2.6685535907745361e-01" nType="0">
            <Node pos="l" depth="3" NCoef="0" IVar="-1" Cut="0.0000000000000000e+00" cType="1" res="-1.4745298540219665e-03" rms="4.8273462057113647e-01" purity="4.2268925905227661e-01" nType="-99"/>
            <Node pos="r" depth="3" NCoef="0" IVar="-1" Cut="0.0000000000000000e+00" cType="1" res="-3.9435423910617828e-02" rms="8.9513875544071198e-02" purity="8.0943992361426353e-03" nType="-99"/>
          </Node>
        </Node>
      </Node>
    </BinaryTree>
    <BinaryTree type="DecisionTree" boostWeight="1.0000000000000000e+00" itree="8">
      <Node pos="s" depth="0" NCoef="0" IVar="8" Cut="2.4592888355255127e+00" cType="1" res="3.9987637137528509e-05" rms="4.1273915767669678e-01" purity="4.9989074468612671e-01" nType="0">
        <Node pos="l" depth="1" NCoef="0" IVar="3" Cut="6.9084663391113281e+01" cType="1" res="2.1371635794639587e-01" rms="3.5380783677101135e-01" purity="8.1984621286392212e-01" nType="0">
          <Node pos="l" depth="2" NCoef="0" IVar="4" Cut="2.9266094207763672e+01" cType="1" res="2.4042275547981262e-01" rms="3.3509954810142517e-01" purity="8.5895013809204102e-01" nType="0">
            <Node pos="l" depth="3" NCoef="0" IVar="-1" Cut="0.0000000000000000e+00" cType="1" res="-7.6099848374724388e-03" rms="4.9094143509864807e-01" purity="4.1464993357658386e-01" nType="-99"/>
            <Node pos="r" depth="3" NCoef="0" IVar="-1" Cut="0.0000000000000000e+00" cType="1" res="2.7834573760628700e-02" rms="3.1308314204216003e-01" purity="8.8593506813049316e-01" nType="-99"/>
          </Node>
          <Node pos="r" depth="2" NCoef="0" IVar="-1" Cut="0.0000000000000000e+00" cType="1" res="-2.3560486733913422e-02" rms="3.6430776119232178e-01" purity="1.7749808728694916e-01" nType="-99"/>
        </Node>
        <Node pos="r" depth="1" NCoef="0" IVar="8" Cut="2.9206993579864502e+00" cType="1" res="-2.3435007035732269e-01" rms="3.3894547820091248e-01" purity="1.4891883730888367e-01" nType="0">
          <Node pos="l" depth="2" NCoef="0" IVar="4" Cut="3.1093412399291992e+01" cType="1" res="-1.3005705177783966e-01" rms="4.3639433383941650e-01" purity="2.9334986209869385e-01" nType="0">
            <Node pos="l" depth="3" NCoef="0" IVar="-1" Cut="0.0000000000000000e+00" cType="1" res="-2.6777934283018112e-02" rms="3.5643464326858521e-01" purity="1.5077777206897736e-01" nType="-99"/>
            <Node pos="r" depth="3" NCoef="0" IVar="-1" Cut="0.0000000000000000e+00" cType="1" res="-4.2358562350273132e-03" rms="4.6392181515693665e-01" purity="3.9242595434188843e-01" nType="-99"/>
          </Node>
          <Node pos="r" depth="2" NCoef="0" IVar="3" Cut="9.2875236511230469e+01" cType="1" res="-2.8442910313606262e-01" rms="2.6621988415718079e-01" purity="7.9566463828086853e-02" nType="0">
            <Node pos="l" depth="3" NCoef="0" IVar="-1" Cut="0.0000000000000000e+00" cType="1" res="-2.9103675857186317e-02" rms="2.8930944204330444e-01" purity="9.5524795353412628e-02" nType="-99"/>
            <Node pos="r" depth="3" NCoef="0" IVar="-1" Cut="0.0000000000000000e+00" cType="1" res="-3.8723226636648178e-02" rms="5.4678518325090408e-02" purity="2.9509472660720348e-03" nType="-99"/>
          </Node>
        </Node>
      </Node>
    </BinaryTree>
    <BinaryTree type="DecisionTree" boostWeight="1.0000000000000000e+00" itree="9">
      <Node pos="s" depth="0" NCoef="0" IVar="8" Cut="2.3018424510955811e+00" cType="1" res="2.1039265902800253e-06" rms="4.0515506267547607e-01" purity="5.0007277727127075e-01" nType="0">
        <Node pos="l" depth="1" NCoef="0" IVar="3" Cut="5.6637424468994141e+01" cType="1" res="2.1994337439537048e-01" rms="3.3553054928779602e-01" purity="8.4565758705139160e-01" nType="0">
          <Node pos="l" depth="2" NCoef="0" IVar="4" Cut="2.5849292755126953e+01" cType="1" res="2.5554221868515015e-01" rms="2.9967004060745239e-01" purity="8.9469748735427856e-01" nType="0">
            <Node pos="l" depth="3" NCoef="0" IVar="-1" Cut="0.0000000000000000e+00" cType="1" res="-4.9130350816994905e-04" rms="4.9980777502059937e-01" purity="4.8613733053207397e-01" nType="-99"/>
            <Node pos="r" depth="3" NCoef="0" IVar="-1" Cut="0.0000000000000000e+00" cType="1" res="2.8996195644140244e-02" rms="2.8485867381095886e-01" purity="9.1005039215087891e-01" nType="-99"/>
          </Node>
          <Node pos="r" depth="2" NCoef="0" IVar="4" Cut="1.0961226654052734e+02" cType="1" res="-5.1072381436824799e-02" rms="4.5044213533401489e-01" purity="4.7231480479240417e-01" nType="0">
            <Node pos="l" depth="3" NCoef="0" IVar="-1" Cut="0.0000000000000000e+00" cType="1" res="5.7557108812034130e-03" rms="4.5361688733100891e-01" purity="6.0453486442565918e-01" nType="-99"/>
            <Node pos="r" depth="3" NCoef="0" IVar="-1" Cut="0.0000000000000000e+00" cType="1" res="-3.3323299139738083e-02" rms="3.1607893109321594e-01" purity="1.4595912396907806e-01" nType="-99"/>
          </Node>
        </Node>
        <Node pos="r" depth="1" NCoef="0" IVar="4" Cut="3.9921005249023438e+01" cType="1" res="-2.0691795647144318e-01" rms="3.5262051224708557e-01" purity="1.7494767904281616e-01" nType="0">
          <Node pos="l" depth="2" NCoef="0" IVar="4" Cut="2.3824914932250977e+01" cType="1" res="-2.6626718044281006e-01" rms="2.8905349969863892e-01" purity="9.7889579832553864e-02" nType="0">
            <Node pos="l" depth="3" NCoef="0" IVar="-1" Cut="0.0000000000000000e+00" cType="1" res="-3.1938094645738602e-02" rms="2.4123983085155487e-01" purity="6.3434787094593048e-02" nType="-99"/>
            <Node pos="r" depth="3" NCoef="0" IVar="-1" Cut="0.0000000000000000e+00" cType="1" res="-2.2981580346822739e-02" rms="3.6289322376251221e-01" purity="1.6852241754531860e-01" nType="-99"/>
          </Node>
          <Node pos="r" depth="2" NCoef="0" IVar="3" Cut="8.1881973266601562e+01" cType="1" res="-8.8444672524929047e-02" rms="4.2976492643356323e-01" purity="3.2877156138420105e-01" nType="0">
            <Node pos="l" depth="3" NCoef="0" IVar="-1" Cut="0.0000000000000000e+00" cType="1" res="8.6103063076734543e-03" rms="4.7984907031059265e-01" purity="5.4663205146789551e-01" nType="-99"/>
            <Node pos="r" depth="3" NCoef="0" IVar="-1" Cut="0.0000000000000000e+00" cType="1" res="-3.6699440330266953e-02" rms="1.2849983572959900e-01" purity="1.7565479502081871e-02" nType="-99"/>
          </Node>
        </Node>
      </Node>
    </BinaryTree>
    <BinaryTree type="DecisionTree" boostWeight="1.0000000000000000e+00" itree="10">
      <Node pos="s" depth="0" NCoef="0" IVar="8" Cut="2.4848845005035400e+00" cType="1" res="-6.7549850791692734e-04" rms="3.9740067720413208e-01" purity="4.9898070096969604e-01" nType="0">
        <Node pos="l" depth="1" NCoef="0" IVar="3" Cut="6.8084434509277344e+01" cType="1" res="1.9039577245712280e-01" rms="3.5100054740905762e-01" purity="8.1455343961715698e-01" nType="0">
          <Node pos="l" depth="2" NCoef="0" IVar="4" Cut="3.3083412170410156e+01" cType="1" res="2.1724762022495270e-01" rms="3.3320108056068420e-01" purity="8.5769474506378174e-01" nType="0">
            <Node pos="l" depth="3" NCoef="0" IVar="-1" Cut="0.0000000000000000e+00" cType="1" res="-5.9672198258340359e-03" rms="4.8818588256835938e-01" purity="4.2571747303009033e-01" nType="-99"/>
            <Node pos="r" depth="3" NCoef="0" IVar="-1" Cut="0.0000000000000000e+00" cType="1" res="2.6242837309837341e-02" rms="3.0956447124481201e-01" purity="8.8903427124023438e-01" nType="-99"/>
          </Node>
          <Node pos="r" depth="2" NCoef="0" IVar="6" Cut="6.0864593505859375e+01" cType="1" res="-1.9575169682502747e-01" rms="3.7263464927673340e-01" purity="1.9415181875228882e-01" nType="0">
            <Node pos="l" depth="3" NCoef="0" IVar="-1" Cut="0.0000000000000000e+00" cType="1" res="-6.4568994566798210e-03" rms="4.6046519279479980e-01" purity="3.5458815097808838e-01" nType="-99"/>
            <Node pos="r" depth="3" NCoef="0" IVar="-1" Cut="0.0000000000000000e+00" cType="1" res="-3.2811194658279419e-02" rms="2.3310562968254089e-01" purity="6.5448142588138580e-02" nType="-99"/>
          </Node>
        </Node>
        <Node pos="r" depth="1" NCoef="0" IVar="8" Cut="2.9359748363494873e+00" cType="1" res="-2.1543662250041962e-01" rms="3.3136329054832458e-01" purity="1.4428187906742096e-01" nType="0">
          <Node pos="l" depth="2" NCoef="0" IVar="4" Cut="3.4678382873535156e+01" cType="1" res="-1.2521997094154358e-01" rms="4.2513737082481384e-01" purity="2.7868157625198364e-01" nType="0">
            <Node pos="l" depth="3" NCoef="0" IVar="-1" Cut="0.0000000000000000e+00" cType="1" res="-2.3687291890382767e-02" rms="3.6237043142318726e-01" purity="1.5853820741176605e-01" nType="-99"/>
            <Node pos="r" depth="3" NCoef="0" IVar="-1" Cut="0.0000000000000000e+00" cType="1" res="-3.9600022137165070e-03" rms="4.5709803700447083e-01" purity="3.8626071810722351e-01" nType="-99"/>
          </Node>
          <Node pos="r" depth="2" NCoef="0" IVar="3" Cut="9.4695365905761719e+01" cType="1" res="-2.6034888625144958e-01" rms="2.6156601309776306e-01" purity="7.7374100685119629e-02" nType="0">
            <Node pos="l" depth="3" NCoef="0" IVar="-1" Cut="0.0000000000000000e+00" cType="1" res="-2.7595642954111099e-02" rms="2.8463909029960632e-01" purity="9.2853471636772156e-02" nType="-99"/>
            <Node pos="r" depth="3" NCoef="0" IVar="-1" Cut="0.0000000000000000e+00" cType="1" res="-3.6944437772035599e-02" rms="4.2882412672042847e-02" purity="1.8123137997463346e-03" nType="-99"/>
          </Node>
        </Node>
      </Node>
    </BinaryTree>
    <BinaryTree type="DecisionTree" boostWeight="1.0000000000000000e+00" itree="11">
      <Node pos="s" depth="0" NCoef="0" IVar="8" Cut="2.3245019912719727e+00" cType="1" res="-1.5036684926599264e-03" rms="3.9077425003051758e-01" purity="4.9826160073280334e-01" nType="0">
        <Node pos="l" depth="1" NCoef="0" IVar="3" Cut="5.8462928771972656e+01" cType="1" res="1.9591951370239258e-01" rms="3.3435299992561340e-01" purity="8.4156900644302368e-01" nType="0">
          <Node pos="l" depth="2" NCoef="0" IVar="3" Cut="3.8406906127929688e+01" cType="1" res="2.2695912420749664e-01" rms="3.0524653196334839e-01" purity="8.8906568288803101e-01" nType="0">
            <Node pos="l" depth="3" NCoef="0" IVar="-1" Cut="0.0000000000000000e+00" cType="1" res="2.9810482636094093e-02" rms="2.5234186649322510e-01" purity="9.2985403537750244e-01" nType="-99"/>
            <Node pos="r" depth="3" NCoef="0" IVar="-1" Cut="0.0000000000000000e+00" cType="1" res="1.8408061936497688e-02" rms="3.6953711509704590e-01" purity="8.2045304775238037e-01" nType="-99"/>
          </Node>
          <Node pos="r" depth="2" NCoef="0" IVar="4" Cut="1.0708083343505859e+02" cType="1" res="-7.6548457145690918e-02" rms="4.3876275420188904e-01" purity="4.2464020848274231e-01" nType="0">
            <Node pos="l" depth="3" NCoef="0" IVar="-1" Cut="0.0000000000000000e+00" cType="1" res="3.1320201233029366e-03" rms="4.5697239041328430e-01" purity="5.6854999065399170e-01" nType="-99"/>
            <Node pos="r" depth="3" NCoef="0" IVar="-1" Cut="0.0000000000000000e+00" cType="1" res="-3.2330788671970367e-02" rms="2.9485240578651428e-01" purity="1.2659847736358643e-01" nType="-99"/>
          </Node>
        </Node>
        <Node pos="r" depth="1" NCoef="0" IVar="4" Cut="3.9921005249023438e+01" cType="1" res="-1.9054190814495087e-01" rms="3.4470778703689575e-01" purity="1.6953501105308533e-01" nType="0">
          <Node pos="l" depth="2" NCoef="0" IVar="4" Cut="2.2310924530029297e+01" cType="1" res="-2.4306598305702209e-01" rms="2.8615537285804749e-01" purity="9.5887631177902222e-02" nType="0">
            <Node pos="l" depth="3" NCoef="0" IVar="-1" Cut="0.0000000000000000e+00" cType="1" res="-3.0447820201516151e-02" rms="2.3580957949161530e-01" purity="6.0418929904699326e-02" nType="-99"/>
            <Node pos="r" depth="3" NCoef="0" IVar="-1" Cut="0.0000000000000000e+00" cType="1" res="-2.2128924727439880e-02" rms="3.5303556919097900e-01" purity="1.5723916888237000e-01" nType="-99"/>
          </Node>
          <Node pos="r" depth="2" NCoef="0" IVar="3" Cut="7.9970741271972656e+01" cType="1" res="-8.3182580769062042e-02" rms="4.2090499401092529e-01" purity="3.2007050514221191e-01" nType="0">
            <Node pos="l" depth="3" NCoef="0" IVar="-1" Cut="0.0000000000000000e+00" cType="1" res="8.4464643150568008e-03" rms="4.7935190796852112e-01" purity="5.4238080978393555e-01" nType="-99"/>
            <Node pos="r" depth="3" NCoef="0" IVar="-1" Cut="0.0000000000000000e+00" cType="1" res="-3.4282289445400238e-02" rms="1.5470364689826965e-01" purity="2.6546303182840347e-02" nType="-99"/>
          </Node>
        </Node>
      </Node>
    </BinaryTree>
    <BinaryTree type="DecisionTree" boostWeight="1.0000000000000000e+00" itree="12">
      <Node pos="s" depth="0" NCoef="0" IVar="8" Cut="2.2533888816833496e+00" cType="1" res="8.4246153710409999e-04" rms="3.8429549336433411e-01" purity="5.0107061862945557e-01" nType="0">
        <Node pos="l" depth="1" NCoef="0" IVar="3" Cut="5.4229969024658203e+01" cType="1" res="1.9368694722652435e-01" rms="3.2503193616867065e-01" purity="8.5228657722473145e-01" nType="0">
          <Node pos="l" depth="2" NCoef="0" IVar="4" Cut="1.3443421936035156e+02" cType="1" res="2.2697772085666656e-01" rms="2.8983262181282043e-01" purity="9.0199124813079834e-01" nType="0">
            <Node pos="l" depth="3" NCoef="0" IVar="-1" Cut="0.0000000000000000e+00" cType="1" res="2.7115920558571815e-02" rms="2.7604722976684570e-01" purity="9.1112250089645386e-01" nType="-99"/>
            <Node pos="r" depth="3" NCoef="0" IVar="-1" Cut="0.0000000000000000e+00" cType="1" res="4.9380552954971790e-03" rms="4.4508862495422363e-01" purity="7.2661113739013672e-01" nType="-99"/>
          </Node>
          <Node pos="r" depth="2" NCoef="0" IVar="4" Cut="1.1214057159423828e+02" cType="1" res="-2.2619789466261864e-02" rms="4.3849784135818481e-01" purity="5.2933079004287720e-01" nType="0">
            <Node pos="l" depth="3" NCoef="0" IVar="-1" Cut="0.0000000000000000e+00" cType="1" res="6.7473165690898895e-03" rms="4.3734925985336304e-01" purity="6.4837294816970825e-01" nType="-99"/>
            <Node pos="r" depth="3" NCoef="0" IVar="-1" Cut="0.0000000000000000e+00" cType="1" res="-3.0493430793285370e-02" rms="3.3128476142883301e-01" purity="1.7514966428279877e-01" nType="-99"/>
          </Node>
        </Node>
        <Node pos="r" depth="1" NCoef="0" IVar="4" Cut="4.1934101104736328e+01" cType="1" res="-1.7307530343532562e-01" rms="3.4901010990142822e-01" purity="1.8432481586933136e-01" nType="0">
          <Node pos="l" depth="2" NCoef="0" IVar="2" Cut="1.2244893074035645e+01" cType="1" res="-2.2661538422107697e-01" rms="2.9581180214881897e-01" purity="1.0519487410783768e-01" nType="0">
            <Node pos="l" depth="3" NCoef="0" IVar="-1" Cut="0.0000000000000000e+00" cType="1" res="-2.7657058089971542e-02" rms="2.7367904782295227e-01" purity="8.6624808609485626e-02" nType="-99"/>
            <Node pos="r" depth="3" NCoef="0" IVar="-1" Cut="0.0000000000000000e+00" cType="1" res="-1.6290122643113136e-02" rms="3.8425639271736145e-01" purity="2.0531007647514343e-01" nType="-99"/>
          </Node>
          <Node pos="r" depth="2" NCoef="0" IVar="3" Cut="8.0899307250976562e+01" cType="1" res="-6.0119535773992538e-02" rms="4.1877534985542297e-01" purity="3.5126858949661255e-01" nType="0">
            <Node pos="l" depth="3" NCoef="0" IVar="-1" Cut="0.0000000000000000e+00" cType="1" res="1.0894820094108582e-02" rms="4.7035446763038635e-01" purity="5.8800995349884033e-01" nType="-99"/>
            <Node pos="r" depth="3" NCoef="0" IVar="-1" Cut="0.0000000000000000e+00" cType="1" res="-3.3804342150688171e-02" rms="1.4430551230907440e-01" purity="2.2571755573153496e-02" nType="-99"/>
          </Node>
        </Node>
      </Node>
    </BinaryTree>
    <BinaryTree type="DecisionTree" boostWeight="1.0000000000000000e+00" itree="13">
      <Node pos="s" depth="0" NCoef="0" IVar="8" Cut="2.5106759071350098e+00" cType="1" res="1.9406175124458969e-04" rms="3.7823146581649780e-01" purity="5.0003063678741455e-01" nType="0">
        <Node pos="l" depth="1" NCoef="0" IVar="3" Cut="7.0042137145996094e+01" cType="1" res="1.6229911148548126e-01" rms="3.4546902775764465e-01" purity="8.0967670679092407e-01" nType="0">
          <Node pos="l" depth="2" NCoef="0" IVar="4" Cut="4.3262920379638672e+01" cType="1" res="1.8574975430965424e-01" rms="3.3276650309562683e-01" purity="8.5175603628158569e-01" nType="0">
            <Node pos="l" depth="3" NCoef="0" IVar="-1" Cut="0.0000000000000000e+00" cType="1" res="-1.9265497103333473e-03" rms="4.7432938218116760e-01" purity="5.0561094284057617e-01" nType="-99"/>
            <Node pos="r" depth="3" NCoef="0" IVar="-1" Cut="0.0000000000000000e+00" cType="1" res="2.4319365620613098e-02" rms="3.0367758870124817e-01" purity="8.9159941673278809e-01" nType="-99"/>
          </Node>
          <Node pos="r" depth="2" NCoef="0" IVar="3" Cut="8.2311958312988281e+01" cType="1" res="-2.0366942882537842e-01" rms="3.3359140157699585e-01" purity="1.5299156308174133e-01" nType="0">
            <Node pos="l" depth="3" NCoef="0" IVar="-1" Cut="0.0000000000000000e+00" cType="1" res="-1.1317117139697075e-02" rms="4.3976631760597229e-01" purity="2.9717507958412170e-01" nType="-99"/>
            <Node pos="r" depth="3" NCoef="0" IVar="-1" Cut="0.0000000000000000e+00" cType="1" res="-3.4114338457584381e-02" rms="1.3880570232868195e-01" purity="2.0110109820961952e-02" nType="-99"/>
          </Node>
        </Node>
        <Node pos="r" depth="1" NCoef="0" IVar="8" Cut="2.9944491386413574e+00" cType="1" res="-1.8777196109294891e-01" rms="3.2365152239799500e-01" purity="1.4098595082759857e-01" nType="0">
          <Node pos="l" depth="2" NCoef="0" IVar="3" Cut="8.6733093261718750e+01" cType="1" res="-1.1800574511289597e-01" rms="4.0401908755302429e-01" purity="2.5054210424423218e-01" nType="0">
            <Node pos="l" depth="3" NCoef="0" IVar="-1" Cut="0.0000000000000000e+00" cType="1" res="-8.9143272489309311e-03" rms="4.3170997500419617e-01" purity="2.9892331361770630e-01" nType="-99"/>
            <Node pos="r" depth="3" NCoef="0" IVar="-1" Cut="0.0000000000000000e+00" cType="1" res="-3.4477069973945618e-02" rms="1.1407563835382462e-01" purity="1.3068540021777153e-02" nType="-99"/>
          </Node>
          <Node pos="r" depth="2" NCoef="0" IVar="3" Cut="9.8520782470703125e+01" cType="1" res="-2.3299992084503174e-01" rms="2.4826855957508087e-01" purity="6.9963023066520691e-02" nType="0">
            <Node pos="l" depth="3" NCoef="0" IVar="-1" Cut="0.0000000000000000e+00" cType="1" res="-2.6307882741093636e-02" rms="2.7070346474647522e-01" purity="8.3926558494567871e-02" nType="-99"/>
            <Node pos="r" depth="3" NCoef="0" IVar="-1" Cut="0.0000000000000000e+00" cType="1" res="-3.4817643463611603e-02" rms="3.4482374787330627e-02" purity="1.1559517588466406e-03" nType="-99"/>
          </Node>
        </Node>
      </Node>
    </BinaryTree>
    <BinaryTree type="DecisionTree" boostWeight="1.0000000000000000e+00" itree="14">
      <Node pos="s" depth="0" NCoef="0" IVar="8" Cut="2.5332398414611816e+00" cType="1" res="2.7707865228876472e-04" rms="3.7316769361495972e-01" purity="5.0022715330123901e-01" nType="0">
        <Node pos="l" depth="1" NCoef="0" IVar="3" Cut="7.0708412170410156e+01" cType="1" res="1.5260529518127441e-01" rms="3.4576779603958130e-01" purity="8.0535888671875000e-01" nType="0">
          <Node pos="l" depth="2" NCoef="0" IVar="4" Cut="3.1810972213745117e+01" cType="1" res="1.7453663051128387e-01" rms="3.3495482802391052e-01" purity="8.4699892997741699e-01" nType="0">
            <Node pos="l" depth="3" NCoef="0" IVar="-1" Cut="0.0000000000000000e+00" cType="1" res="-8.1953750923275948e-03" rms="4.7549098730087280e-01" purity="3.9361643791198730e-01" nType="-99"/>
            <Node pos="r" depth="3" NCoef="0" IVar="-1" Cut="0.0000000000000000e+00" cType="1" res="2.2817242890596390e-02" rms="3.1349825859069824e-01" purity="8.8128268718719482e-01" nType="-99"/>
          </Node>
          <Node pos="r" depth="2" NCoef="0" IVar="3" Cut="8.3043762207031250e+01" cType="1" res="-1.9198335707187653e-01" rms="3.3001250028610229e-01" purity="1.5110430121421814e-01" nType="0">
            <Node pos="l" depth="3" NCoef="0" IVar="-1" Cut="0.0000000000000000e+00" cType="1" res="-9.7792819142341614e-03" rms="4.4154393672943115e-01" purity="3.0311724543571472e-01" nType="-99"/>
            <Node pos="r" depth="3" NCoef="0" IVar="-1" Cut="0.0000000000000000e+00" cType="1" res="-3.3639062196016312e-02" rms="1.2766367197036743e-01" purity="1.6796605661511421e-02" nType="-99"/>
          </Node>
        </Node>
        <Node pos="r" depth="1" NCoef="0" IVar="8" Cut="2.9449310302734375e+00" cType="1" res="-1.8100322782993317e-01" rms="3.1971901655197144e-01" purity="1.3710081577301025e-01" nType="0">
          <Node pos="l" depth="2" NCoef="0" IVar="4" Cut="2.7439659118652344e+01" cType="1" res="-1.0689911991357803e-01" rms="4.1078120470046997e-01" purity="2.6390993595123291e-01" nType="0">
            <Node pos="l" depth="3" NCoef="0" IVar="-1" Cut="0.0000000000000000e+00" cType="1" res="-2.3667251691222191e-02" rms="3.2759737968444824e-01" purity="1.2326673418283463e-01" nType="-99"/>
            <Node pos="r" depth="3" NCoef="0" IVar="-1" Cut="0.0000000000000000e+00" cType="1" res="-4.6669431030750275e-03" rms="4.4302675127983093e-01" purity="3.5101220011711121e-01" nType="-99"/>
          </Node>
          <Node pos="r" depth="2" NCoef="0" IVar="3" Cut="9.5681335449218750e+01" cType="1" res="-2.1650022268295288e-01" rms="2.5780844688415527e-01" purity="7.6357297599315643e-02" nType="0">
            <Node pos="l" depth="3" NCoef="0" IVar="-1" Cut="0.0000000000000000e+00" cType="1" res="-2.4742485955357552e-02" rms="2.8091451525688171e-01" purity="9.1498889029026031e-02" nType="-99"/>
            <Node pos="r" depth="3" NCoef="0" IVar="-1" Cut="0.0000000000000000e+00" cType="1" res="-3.4098625183105469e-02" rms="4.0622800588607788e-02" purity="1.6107268165796995e-03" nType="-99"/>
          </Node>
        </Node>
      </Node>
    </BinaryTree>
    <BinaryTree type="DecisionTree" boostWeight="1.0000000000000000e+00" itree="15">
      <Node pos="s" depth="0" NCoef="0" IVar="8" Cut="2.1965000629425049e+00" cType="1" res="1.9235252693761140e-04" rms="3.6828070878982544e-01" purity="4.9999570846557617e-01" nType="0">
        <Node pos="l" depth="1" NCoef="0" IVar="3" Cut="5.6571708679199219e+01" cType="1" res="1.7166094481945038e-01" rms="3.1685784459114075e-01" purity="8.5966402292251587e-01" nType="0">
          <Node pos="l" depth="2" NCoef="0" IVar="4" Cut="1.3487852478027344e+02" cType="1" res="1.9635060429573059e-01" rms="2.9099911451339722e-01" purity="9.0095990896224976e-01" nType="0">
            <Node pos="l" depth="3" NCoef="0" IVar="-1" Cut="0.0000000000000000e+00" cType="1" res="2.4989953264594078e-02" rms="2.7643641829490662e-01" purity="9.1088944673538208e-01" nType="-99"/>
            <Node pos="r" depth="3" NCoef="0" IVar="-1" Cut="0.0000000000000000e+00" cType="1" res="-2.4481597938574851e-04" rms="4.5580002665519714e-01" purity="7.0340299606323242e-01" nType="-99"/>
          </Node>
          <Node pos="r" depth="2" NCoef="0" IVar="4" Cut="1.0681640625000000e+02" cType="1" res="-5.9836711734533310e-02" rms="4.3413424491882324e-01" purity="4.7246101498603821e-01" nType="0">
            <Node pos="l" depth="3" NCoef="0" IVar="-1" Cut="0.0000000000000000e+00" cType="1" res="4.6089882962405682e-03" rms="4.4519862532615662e-01" purity="6.2730395793914795e-01" nType="-99"/>
            <Node pos="r" depth="3" NCoef="0" IVar="-1" Cut="0.0000000000000000e+00" cType="1" res="-2.8148222714662552e-02" rms="3.3959126472473145e-01" purity="1.8555167317390442e-01" nType="-99"/>
          </Node>
        </Node>
        <Node pos="r" depth="1" NCoef="0" IVar="4" Cut="4.2416069030761719e+01" cType="1" res="-1.4597889780998230e-01" rms="3.4530389308929443e-01" purity="1.9339051842689514e-01" nType="0">
          <Node pos="l" depth="2" NCoef="0" IVar="4" Cut="2.5314155578613281e+01" cType="1" res="-1.9724123179912567e-01" rms="2.9751291871070862e-01" purity="1.0826936364173889e-01" nType="0">
            <Node pos="l" depth="3" NCoef="0" IVar="-1" Cut="0.0000000000000000e+00" cType="1" res="-2.6924189180135727e-02" rms="2.5065809488296509e-01" purity="6.9472394883632660e-02" nType="-99"/>
            <Node pos="r" depth="3" NCoef="0" IVar="-1" Cut="0.0000000000000000e+00" cType="1" res="-1.7056733369827271e-02" rms="3.7496981024742126e-01" purity="1.9199126958847046e-01" nType="-99"/>
          </Node>
          <Node pos="r" depth="2" NCoef="0" IVar="3" Cut="8.1399948120117188e+01" cType="1" res="-4.1160978376865387e-02" rms="4.0705135464668274e-01" purity="3.6744073033332825e-01" nType="0">
            <Node pos="l" depth="3" NCoef="0" IVar="-1" Cut="0.0000000000000000e+00" cType="1" res="1.1089772917330265e-02" rms="4.6217766404151917e-01" purity="6.0460853576660156e-01" nType="-99"/>
            <Node pos="r" depth="3" NCoef="0" IVar="-1" Cut="0.0000000000000000e+00" cType="1" res="-3.2301332801580429e-02" rms="1.3026359677314758e-01" purity="1.8032824620604515e-02" nType="-99"/>
          </Node>
        </Node>
      </Node>
    </BinaryTree>
    <BinaryTree type="DecisionTree" boostWeight="1.0000000000000000e+00" itree="16">
      <Node pos="s" depth="0" NCoef="0" IVar="8" Cut="2.5310304164886475e+00" cType="1" res="-1.8183630891144276e-04" rms="3.6311757564544678e-01" purity="4.9953991174697876e-01" nType="0">
        <Node pos="l" depth="1" NCoef="0" IVar="3" Cut="4.7928417205810547e+01" cType="1" res="1.3824310898780823e-01" rms="3.4113886952400208e-01" purity="8.0566513538360596e-01" nType="0">
          <Node pos="l" depth="2" NCoef="0" IVar="4" Cut="2.4818746566772461e+01" cType="1" res="1.9120091199874878e-01" rms="2.8393959999084473e-01" purity="8.9975589513778687e-01" nType="0">
            <Node pos="l" depth="3" NCoef="0" IVar="-1" Cut="0.0000000000000000e+00" cType="1" res="-4.1829762049019337e-03" rms="4.7929376363754272e-01" purity="4.4320154190063477e-01" nType="-99"/>
            <Node pos="r" depth="3" NCoef="0" IVar="-1" Cut="0.0000000000000000e+00" cType="1" res="2.4927530437707901e-02" rms="2.6858854293823242e-01" purity="9.1861397027969360e-01" nType="-99"/>
          </Node>
          <Node pos="r" depth="2" NCoef="0" IVar="4" Cut="1.1736277770996094e+02" cType="1" res="1.4194815419614315e-02" rms="4.2210027575492859e-01" purity="5.8526688814163208e-01" nType="0">
            <Node pos="l" depth="3" NCoef="0" IVar="-1" Cut="0.0000000000000000e+00" cType="1" res="6.2795719131827354e-03" rms="4.1959175467491150e-01" purity="6.4646917581558228e-01" nType="-99"/>
            <Node pos="r" depth="3" NCoef="0" IVar="-1" Cut="0.0000000000000000e+00" cType="1" res="-2.9976218938827515e-02" rms="3.3172634243965149e-01" purity="1.9404996931552887e-01" nType="-99"/>
          </Node>
        </Node>
        <Node pos="r" depth="1" NCoef="0" IVar="8" Cut="3.0179202556610107e+00" cType="1" res="-1.6398668289184570e-01" rms="3.1727635860443115e-01" purity="1.3728745281696320e-01" nType="0">
          <Node pos="l" depth="2" NCoef="0" IVar="4" Cut="2.9432332992553711e+01" cType="1" res="-1.0567347705364227e-01" rms="3.9326629042625427e-01" purity="2.3710371553897858e-01" nType="0">
            <Node pos="l" depth="3" NCoef="0" IVar="-1" Cut="0.0000000000000000e+00" cType="1" res="-2.1854680031538010e-02" rms="3.1895822286605835e-01" purity="1.1720965802669525e-01" nType="-99"/>
            <Node pos="r" depth="3" NCoef="0" IVar="-1" Cut="0.0000000000000000e+00" cType="1" res="-4.4927867129445076e-03" rms="4.3590578436851501e-01" purity="3.3793634176254272e-01" nType="-99"/>
          </Node>
          <Node pos="r" depth="2" NCoef="0" IVar="3" Cut="9.9714668273925781e+01" cType="1" res="-2.0622017979621887e-01" rms="2.3940026760101318e-01" purity="6.4995244145393372e-02" nType="0">
            <Node pos="l" depth="3" NCoef="0" IVar="-1" Cut="0.0000000000000000e+00" cType="1" res="-2.4909665808081627e-02" rms="2.6168495416641235e-01" purity="7.8135386109352112e-02" nType="-99"/>
            <Node pos="r" depth="3" NCoef="0" IVar="-1" Cut="0.0000000000000000e+00" cType="1" res="-3.3083602786064148e-02" rms="3.0237989500164986e-02" purity="8.5420528193935752e-04" nType="-99"/>
          </Node>
        </Node>
      </Node>
    </BinaryTree>
    <BinaryTree type="DecisionTree" boostWeight="1.0000000000000000e+00" itree="17">
      <Node pos="s" depth="0" NCoef="0" IVar="8" Cut="2.2483539581298828e+00" cType="1" res="-7.0161954499781132e-04" rms="3.5961425304412842e-01" purity="4.9921503663063049e-01" nType="0">
        <Node pos="l" depth="1" NCoef="0" IVar="3" Cut="5.5076622009277344e+01" cType="1" res="1.5062339603900909e-01" rms="3.1961941719055176e-01" purity="8.5175710916519165e-01" nType="0">
          <Node pos="l" depth="2" NCoef="0" IVar="4" Cut="1.3487852478027344e+02" cType="1" res="1.7745125293731689e-01" rms="2.9091545939445496e-01" purity="9.0002739429473877e-01" nType="0">
            <Node pos="l" depth="3" NCoef="0" IVar="-1" Cut="0.0000000000000000e+00" cType="1" res="2.3515667766332626e-02" rms="2.7732321619987488e-01" purity="9.0957182645797729e-01" nType="-99"/>
            <Node pos="r" depth="3" NCoef="0" IVar="-1" Cut="0.0000000000000000e+00" cType="1" res="-3.1617874628864229e-04" rms="4.5078787207603455e-01" purity="7.1141690015792847e-01" nType="-99"/>
          </Node>
          <Node pos="r" depth="2" NCoef="0" IVar="4" Cut="1.1216553497314453e+02" cType="1" res="-4.2634714394807816e-02" rms="4.3112069368362427e-01" purity="5.0403469800949097e-01" nType="0">
            <Node pos="l" depth="3" NCoef="0" IVar="-1" Cut="0.0000000000000000e+00" cType="1" res="3.7011138629168272e-03" rms="4.4061511754989624e-01" purity="6.3037270307540894e-01" nType="-99"/>
            <Node pos="r" depth="3" NCoef="0" IVar="-1" Cut="0.0000000000000000e+00" cType="1" res="-2.9508702456951141e-02" rms="3.1983491778373718e-01" purity="1.5336112678050995e-01" nType="-99"/>
          </Node>
        </Node>
        <Node pos="r" depth="1" NCoef="0" IVar="4" Cut="3.7274753570556641e+01" cType="1" res="-1.3607679307460785e-01" rms="3.3884042501449585e-01" purity="1.8383133411407471e-01" nType="0">
          <Node pos="l" depth="2" NCoef="0" IVar="4" Cut="2.2692131042480469e+01" cType="1" res="-1.8539202213287354e-01" rms="2.8230994939804077e-01" purity="9.3700051307678223e-02" nType="0">
            <Node pos="l" depth="3" NCoef="0" IVar="-1" Cut="0.0000000000000000e+00" cType="1" res="-2.6261886581778526e-02" rms="2.4001285433769226e-01" purity="6.2795050442218781e-02" nType="-99"/>
            <Node pos="r" depth="3" NCoef="0" IVar="-1" Cut="0.0000000000000000e+00" cType="1" res="-1.7754260450601578e-02" rms="3.5010319948196411e-01" purity="1.5659913420677185e-01" nType="-99"/>
          </Node>
          <Node pos="r" depth="2" NCoef="0" IVar="3" Cut="8.3573471069335938e+01" cType="1" res="-5.2260439842939377e-02" rms="4.0414604544639587e-01" purity="3.3701884746551514e-01" nType="0">
            <Node pos="l" depth="3" NCoef="0" IVar="-1" Cut="0.0000000000000000e+00" cType="1" res="6.0683577321469784e-03" rms="4.6708965301513672e-01" purity="5.2615451812744141e-01" nType="-99"/>
            <Node pos="r" depth="3" NCoef="0" IVar="-1" Cut="0.0000000000000000e+00" cType="1" res="-3.1540635973215103e-02" rms="1.2269777804613113e-01" purity="1.5648622065782547e-02" nType="-99"/>
          </Node>
        </Node>
      </Node>
    </BinaryTree>
    <BinaryTree type="DecisionTree" boostWeight="1.0000000000000000e+00" itree="18">
      <Node pos="s" depth="0" NCoef="0" IVar="8" Cut="2.5575776100158691e+00" cType="1" res="5.3510011639446020e-04" rms="3.5507309436798096e-01" purity="5.0055146217346191e-01" nType="0">
        <Node pos="l" depth="1" NCoef="0" IVar="3" Cut="7.3095169067382812e+01" cType="1" res="1.2391341477632523e-01" rms="3.3956912159919739e-01" purity="8.0055683851242065e-01" nType="0">
          <Node pos="l" depth="2" NCoef="0" IVar="4" Cut="4.3947132110595703e+01" cType="1" res="1.4196069538593292e-01" rms="3.3329334855079651e-01" purity="8.4016013145446777e-01" nType="0">
            <Node pos="l" depth="3" NCoef="0" IVar="-1" Cut="0.0000000000000000e+00" cType="1" res="-4.4755167327821255e-03" rms="4.6401345729827881e-01" purity="4.7640597820281982e-01" nType="-99"/>
            <Node pos="r" depth="3" NCoef="0" IVar="-1" Cut="0.0000000000000000e+00" cType="1" res="2.0916365087032318e-02" rms="3.0491983890533447e-01" purity="8.8639169931411743e-01" nType="-99"/>
          </Node>
          <Node pos="r" depth="2" NCoef="0" IVar="0" Cut="2.4268295764923096e+00" cType="1" res="-1.8914867937564850e-01" rms="2.9137626290321350e-01" purity="1.1356693506240845e-01" nType="0">
            <Node pos="l" depth="3" NCoef="0" IVar="-1" Cut="0.0000000000000000e+00" cType="1" res="-2.3261776193976402e-02" rms="2.9956200718879700e-01" purity="1.1655160784721375e-01" nType="-99"/>
            <Node pos="r" depth="3" NCoef="0" IVar="-1" Cut="0.0000000000000000e+00" cType="1" res="-2.2801864892244339e-02" rms="2.8286558389663696e-01" purity="1.1058149486780167e-01" nType="-99"/>
          </Node>
        </Node>
        <Node pos="r" depth="1" NCoef="0" IVar="8" Cut="3.0096297264099121e+00" cType="1" res="-1.5041439235210419e-01" rms="3.1279972195625305e-01" purity="1.3350440561771393e-01" nType="0">
          <Node pos="l" depth="2" NCoef="0" IVar="3" Cut="8.8990821838378906e+01" cType="1" res="-9.5059677958488464e-02" rms="3.9084795117378235e-01" purity="2.3536132276058197e-01" nType="0">
            <Node pos="l" depth="3" NCoef="0" IVar="-1" Cut="0.0000000000000000e+00" cType="1" res="-7.4417237192392349e-03" rms="4.1814181208610535e-01" purity="2.7881792187690735e-01" nType="-99"/>
            <Node pos="r" depth="3" NCoef="0" IVar="-1" Cut="0.0000000000000000e+00" cType="1" res="-3.2865036278963089e-02" rms="8.5875771939754486e-02" purity="7.2098360396921635e-03" nType="-99"/>
          </Node>
          <Node pos="r" depth="2" NCoef="0" IVar="7" Cut="1.8865411758422852e+01" cType="1" res="-1.8676552176475525e-01" rms="2.4175487458705902e-01" purity="6.6615551710128784e-02" nType="0">
            <Node pos="l" depth="3" NCoef="0" IVar="-1" Cut="0.0000000000000000e+00" cType="1" res="-2.6121277362108231e-02" rms="2.2614683210849762e-01" purity="5.5443368852138519e-02" nType="-99"/>
            <Node pos="r" depth="3" NCoef="0" IVar="-1" Cut="0.0000000000000000e+00" cType="1" res="-2.0343299955129623e-02" rms="2.8887107968330383e-01" purity="1.0689432919025421e-01" nType="-99"/>
          </Node>
        </Node>
      </Node>
    </BinaryTree>
    <BinaryTree type="DecisionTree" boostWeight="1.0000000000000000e+00" itree="19">
      <Node pos="s" depth="0" NCoef="0" IVar="8" Cut="2.1807336807250977e+00" cType="1" res="-4.2731975554488599e-04" rms="3.5138794779777527e-01" purity="4.9969175457954407e-01" nType="0">
        <Node pos="l" depth="1" NCoef="0" IVar="3" Cut="5.0990089416503906e+01" cType="1" res="1.4105108380317688e-01" rms="3.1171092391014099e-01" purity="8.6070901155471802e-01" nType="0">
          <Node pos="l" depth="2" NCoef="0" IVar="4" Cut="1.3338235473632812e+02" cType="1" res="1.6969814896583557e-01" rms="2.7798789739608765e-01" purity="9.1033709049224854e-01" nType="0">
            <Node pos="l" depth="3" NCoef="0" IVar="-1" Cut="0.0000000000000000e+00" cType="1" res="2.3504083976149559e-02" rms="2.6342085003852844e-01" purity="9.1996586322784424e-01" nType="-99"/>
            <Node pos="r" depth="3" NCoef="0" IVar="-1" Cut="0.0000000000000000e+00" cType="1" res="2.8113550506532192e-03" rms="4.3207201361656189e-01" purity="7.4867159128189087e-01" nType="-99"/>
          </Node>
          <Node pos="r" depth="2" NCoef="0" IVar="4" Cut="1.1471298217773438e+02" cType="1" res="-1.2708988040685654e-02" rms="4.1935074329376221e-01" purity="5.9433561563491821e-01" nType="0">
            <Node pos="l" depth="3" NCoef="0" IVar="-1" Cut="0.0000000000000000e+00" cType="1" res="5.8463513851165771e-03" rms="4.1416674852371216e-01" purity="6.9947981834411621e-01" nType="-99"/>
            <Node pos="r" depth="3" NCoef="0" IVar="-1" Cut="0.0000000000000000e+00" cType="1" res="-2.7840163558721542e-02" rms="3.5830032825469971e-01" purity="2.2272746264934540e-01" nType="-99"/>
          </Node>
        </Node>
        <Node pos="r" depth="1" NCoef="0" IVar="4" Cut="4.4911132812500000e+01" cType="1" res="-1.1957921832799911e-01" rms="3.3849188685417175e-01" purity="1.9564610719680786e-01" nType="0">
          <Node pos="l" depth="2" NCoef="0" IVar="2" Cut="1.4045547485351562e+01" cType="1" res="-1.6337907314300537e-01" rms="2.9978272318840027e-01" purity="1.1369957029819489e-01" nType="0">
            <Node pos="l" depth="3" NCoef="0" IVar="-1" Cut="0.0000000000000000e+00" cType="1" res="-2.2891722619533539e-02" rms="2.8004986047744751e-01" purity="9.4331063330173492e-02" nType="-99"/>
            <Node pos="r" depth="3" NCoef="0" IVar="-1" Cut="0.0000000000000000e+00" cType="1" res="-8.4198322147130966e-03" rms="3.9922079443931580e-01" purity="2.4854254722595215e-01" nType="-99"/>
          </Node>
          <Node pos="r" depth="2" NCoef="0" IVar="3" Cut="7.9204734802246094e+01" cType="1" res="-2.2477131336927414e-02" rms="3.9454942941665649e-01" purity="3.7731748819351196e-01" nType="0">
            <Node pos="l" depth="3" NCoef="0" IVar="-1" Cut="0.0000000000000000e+00" cType="1" res="1.2776840478181839e-02" rms="4.5401158928871155e-01" purity="6.3776016235351562e-01" nType="-99"/>
            <Node pos="r" depth="3" NCoef="0" IVar="-1" Cut="0.0000000000000000e+00" cType="1" res="-2.9123546555638313e-02" rms="1.6066788136959076e-01" purity="3.0205890536308289e-02" nType="-99"/>
          </Node>
        </Node>
      </Node>
    </BinaryTree>
    <BinaryTree type="DecisionTree" boostWeight="1.0000000000000000e+00" itree="20">
      <Node pos="s" depth="0" NCoef="0" IVar="8" Cut="2.1679880619049072e+00" cType="1" res="-8.2791416207328439e-04" rms="3.4758189320564270e-01" purity="4.9793067574501038e-01" nType="0">
        <Node pos="l" depth="1" NCoef="0" IVar="3" Cut="5.0895687103271484e+01" cType="1" res="1.3614782691001892e-01" rms="3.0886664986610413e-01" purity="8.6309128999710083e-01" nType="0">
          <Node pos="l" depth="2" NCoef="0" IVar="4" Cut="1.3342343139648438e+02" cType="1" res="1.6253155469894409e-01" rms="2.7632272243499756e-01" purity="9.1155648231506348e-01" nType="0">
            <Node pos="l" depth="3" NCoef="0" IVar="-1" Cut="0.0000000000000000e+00" cType="1" res="2.3033689707517624e-02" rms="2.6174315810203552e-01" purity="9.2127007246017456e-01" nType="-99"/>
            <Node pos="r" depth="3" NCoef="0" IVar="-1" Cut="0.0000000000000000e+00" cType="1" res="2.6762480847537518e-03" rms="4.3217679858207703e-01" purity="7.4862647056579590e-01" nType="-99"/>
          </Node>
          <Node pos="r" depth="2" NCoef="0" IVar="4" Cut="1.1471298217773438e+02" cType="1" res="-7.0226350799202919e-03" rms="4.1769254207611084e-01" purity="6.0009640455245972e-01" nType="0">
            <Node pos="l" depth="3" NCoef="0" IVar="-1" Cut="0.0000000000000000e+00" cType="1" res="6.6112782806158066e-03" rms="4.1131782531738281e-01" purity="7.0878565311431885e-01" nType="-99"/>
            <Node pos="r" depth="3" NCoef="0" IVar="-1" Cut="0.0000000000000000e+00" cType="1" res="-2.7006223797798157e-02" rms="3.6147180199623108e-01" purity="2.2213101387023926e-01" nType="-99"/>
          </Node>
        </Node>
        <Node pos="r" depth="1" NCoef="0" IVar="8" Cut="2.7326979637145996e+00" cType="1" res="-1.1370348185300827e-01" rms="3.3697786927223206e-01" purity="1.9701811671257019e-01" nType="0">
          <Node pos="l" depth="2" NCoef="0" IVar="3" Cut="7.7824790954589844e+01" cType="1" res="-1.5369010157883167e-02" rms="4.2642310261726379e-01" purity="4.4000244140625000e-01" nType="0">
            <Node pos="l" depth="3" NCoef="0" IVar="-1" Cut="0.0000000000000000e+00" cType="1" res="3.0987325590103865e-03" rms="4.5054262876510620e-01" purity="5.2907907962799072e-01" nType="-99"/>
            <Node pos="r" depth="3" NCoef="0" IVar="-1" Cut="0.0000000000000000e+00" cType="1" res="-2.6776907965540886e-02" rms="2.1877336502075195e-01" purity="5.8779161423444748e-02" nType="-99"/>
          </Node>
          <Node pos="r" depth="2" NCoef="0" IVar="8" Cut="3.0494604110717773e+00" cType="1" res="-1.5043888986110687e-01" rms="2.8824207186698914e-01" purity="1.0624497383832932e-01" nType="0">
            <Node pos="l" depth="3" NCoef="0" IVar="-1" Cut="0.0000000000000000e+00" cType="1" res="-1.4051314443349838e-02" rms="3.5573968291282654e-01" purity="1.7681010067462921e-01" nType="-99"/>
            <Node pos="r" depth="3" NCoef="0" IVar="-1" Cut="0.0000000000000000e+00" cType="1" res="-2.4407342076301575e-02" rms="2.3210924863815308e-01" purity="6.1264604330062866e-02" nType="-99"/>
          </Node>
        </Node>
      </Node>
    </BinaryTree>
    <BinaryTree type="DecisionTree" boostWeight="1.0000000000000000e+00" itree="21">
      <Node pos="s" depth="0" NCoef="0" IVar="8" Cut="2.5955224037170410e+00" cType="1" res="1.1051491310354322e-04" rms="3.4515589475631714e-01" purity="4.9968379735946655e-01" nType="0">
        <Node pos="l" depth="1" NCoef="0" IVar="3" Cut="7.3263252258300781e+01" cType="1" res="1.0451941937208176e-01" rms="3.3824807405471802e-01" purity="7.9198324680328369e-01" nType="0">
          <Node pos="l" depth="2" NCoef="0" IVar="4" Cut="2.6935338973999023e+01" cType="1" res="1.2164687365293503e-01" rms="3.3411863446235657e-01" purity="8.3428627252578735e-01" nType="0">
            <Node pos="l" depth="3" NCoef="0" IVar="-1" Cut="0.0000000000000000e+00" cType="1" res="-1.1511264368891716e-02" rms="4.5304745435714722e-01" purity="3.4443172812461853e-01" nType="-99"/>
            <Node pos="r" depth="3" NCoef="0" IVar="-1" Cut="0.0000000000000000e+00" cType="1" res="1.8122870475053787e-02" rms="3.1795221567153931e-01" purity="8.6849051713943481e-01" nType="-99"/>
          </Node>
          <Node pos="r" depth="2" NCoef="0" IVar="3" Cut="8.7447853088378906e+01" cType="1" res="-1.7304256558418274e-01" rms="2.7858948707580566e-01" purity="1.0643393546342850e-01" nType="0">
            <Node pos="l" depth="3" NCoef="0" IVar="-1" Cut="0.0000000000000000e+00" cType="1" res="-1.3191584497690201e-02" rms="3.9310100674629211e-01" purity="2.2397415339946747e-01" nType="-99"/>
            <Node pos="r" depth="3" NCoef="0" IVar="-1" Cut="0.0000000000000000e+00" cType="1" res="-3.1881745904684067e-02" rms="7.5782731175422668e-02" purity="5.1561142317950726e-03" nType="-99"/>
          </Node>
        </Node>
        <Node pos="r" depth="1" NCoef="0" IVar="4" Cut="3.5260868072509766e+01" cType="1" res="-1.3280853629112244e-01" rms="3.0593645572662354e-01" purity="1.2756839394569397e-01" nType="0">
          <Node pos="l" depth="2" NCoef="0" IVar="2" Cut="1.5605097770690918e+01" cType="1" res="-1.5890860557556152e-01" rms="2.6145556569099426e-01" purity="7.6836638152599335e-02" nType="0">
            <Node pos="l" depth="3" NCoef="0" IVar="-1" Cut="0.0000000000000000e+00" cType="1" res="-2.3016275838017464e-02" rms="2.5131219625473022e-01" purity="7.0249125361442566e-02" nType="-99"/>
            <Node pos="r" depth="3" NCoef="0" IVar="-1" Cut="0.0000000000000000e+00" cType="1" res="-1.1487755924463272e-02" rms="3.6474466323852539e-01" purity="1.6601298749446869e-01" nType="-99"/>
          </Node>
          <Node pos="r" depth="2" NCoef="0" IVar="3" Cut="8.7676704406738281e+01" cType="1" res="-7.9263918101787567e-02" rms="3.7564453482627869e-01" purity="2.3164518177509308e-01" nType="0">
            <Node pos="l" depth="3" NCoef="0" IVar="-1" Cut="0.0000000000000000e+00" cType="1" res="1.0205383878201246e-03" rms="4.6433737874031067e-01" purity="3.8824197649955750e-01" nType="-99"/>
            <Node pos="r" depth="3" NCoef="0" IVar="-1" Cut="0.0000000000000000e+00" cType="1" res="-3.0938819050788879e-02" rms="7.8293018043041229e-02" purity="5.9967031702399254e-03" nType="-99"/>
          </Node>
        </Node>
      </Node>
    </BinaryTree>
    <BinaryTree type="DecisionTree" boostWeight="1.0000000000000000e+00" itree="22">
      <Node pos="s" depth="0" NCoef="0" IVar="8" Cut="2.1210052967071533e+00" cType="1" res="1.2792991474270821e-03" rms="3.4221628308296204e-01" purity="5.0232088565826416e-01" nType="0">
        <Node pos="l" depth="1" NCoef="0" IVar="3" Cut="5.2845211029052734e+01" cType="1" res="1.2661242485046387e-01" rms="3.0373084545135498e-01" purity="8.6946755647659302e-01" nType="0">
          <Node pos="l" depth="2" NCoef="0" IVar="4" Cut="1.3489047241210938e+02" cType="1" res="1.4702744781970978e-01" rms="2.7824994921684265e-01" purity="9.0996199846267700e-01" nType="0">
            <Node pos="l" depth="3" NCoef="0" IVar="-1" Cut="0.0000000000000000e+00" cType="1" res="2.1806385368108749e-02" rms="2.6372185349464417e-01" purity="9.2000299692153931e-01" nType="-99"/>
            <Node pos="r" depth="3" NCoef="0" IVar="-1" Cut="0.0000000000000000e+00" cType="1" res="-1.2285008560866117e-03" rms="4.4585749506950378e-01" purity="7.2221720218658447e-01" nType="-99"/>
          </Node>
          <Node pos="r" depth="2" NCoef="0" IVar="6" Cut="7.0198387145996094e+01" cType="1" res="-2.4744696915149689e-02" rms="4.1976022720336914e-01" purity="5.6924158334732056e-01" nType="0">
            <Node pos="l" depth="3" NCoef="0" IVar="-1" Cut="0.0000000000000000e+00" cType="1" res="6.0365442186594009e-03" rms="4.1539987921714783e-01" purity="6.9530457258224487e-01" nType="-99"/>
            <Node pos="r" depth="3" NCoef="0" IVar="-1" Cut="0.0000000000000000e+00" cType="1" res="-2.4100501090288162e-02" rms="3.7447977066040039e-01" purity="2.7733379602432251e-01" nType="-99"/>
          </Node>
        </Node>
        <Node pos="r" depth="1" NCoef="0" IVar="4" Cut="4.1934101104736328e+01" cType="1" res="-9.9028728902339935e-02" rms="3.3819264173507690e-01" purity="2.0848187804222107e-01" nType="0">
          <Node pos="l" depth="2" NCoef="0" IVar="2" Cut="1.0897407531738281e+01" cType="1" res="-1.4331692457199097e-01" rms="2.9732140898704529e-01" purity="1.1053539812564850e-01" nType="0">
            <Node pos="l" depth="3" NCoef="0" IVar="-1" Cut="0.0000000000000000e+00" cType="1" res="-2.1811800077557564e-02" rms="2.7332377433776855e-01" purity="8.8261947035789490e-02" nType="-99"/>
            <Node pos="r" depth="3" NCoef="0" IVar="-1" Cut="0.0000000000000000e+00" cType="1" res="-1.0915941558778286e-02" rms="3.7318542599678040e-01" purity="2.0027074217796326e-01" nType="-99"/>
          </Node>
          <Node pos="r" depth="2" NCoef="0" IVar="3" Cut="7.9772308349609375e+01" cType="1" res="-1.6679903492331505e-02" rms="3.9018198847770691e-01" purity="3.9060220122337341e-01" nType="0">
            <Node pos="l" depth="3" NCoef="0" IVar="-1" Cut="0.0000000000000000e+00" cType="1" res="9.8621658980846405e-03" rms="4.5153859257698059e-01" purity="6.2160980701446533e-01" nType="-99"/>
            <Node pos="r" depth="3" NCoef="0" IVar="-1" Cut="0.0000000000000000e+00" cType="1" res="-2.7603438124060631e-02" rms="1.6029052436351776e-01" purity="2.9797563329339027e-02" nType="-99"/>
          </Node>
        </Node>
      </Node>
    </BinaryTree>
    <BinaryTree type="DecisionTree" boostWeight="1.0000000000000000e+00" itree="23">
      <Node pos="s" depth="0" NCoef="0" IVar="8" Cut="2.0757961273193359e+00" cType="1" res="5.6081369984894991e-04" rms="3.3917587995529175e-01" purity="5.0109916925430298e-01" nType="0">
        <Node pos="l" depth="1" NCoef="0" IVar="5" Cut="1.1893901062011719e+02" cType="1" res="1.2228619307279587e-01" rms="3.0038493871688843e-01" purity="8.7334990501403809e-01" nType="0">
          <Node pos="l" depth="2" NCoef="0" IVar="3" Cut="4.4190193176269531e+01" cType="1" res="1.3300643861293793e-01" rms="2.8927898406982422e-01" purity="8.9000004529953003e-01" nType="0">
            <Node pos="l" depth="3" NCoef="0" IVar="-1" Cut="0.0000000000000000e+00" cType="1" res="2.2631611675024033e-02" rms="2.4925979971885681e-01" purity="9.3065398931503296e-01" nType="-99"/>
            <Node pos="r" depth="3" NCoef="0" IVar="-1" Cut="0.0000000000000000e+00" cType="1" res="6.8380176089704037e-03" rms="3.8282528519630432e-01" purity="7.5567173957824707e-01" nType="-99"/>
          </Node>
          <Node pos="r" depth="2" NCoef="0" IVar="-1" Cut="0.0000000000000000e+00" cType="1" res="-2.0040322095155716e-02" rms="4.2413803935050964e-01" purity="4.3779730796813965e-01" nType="-99"/>
        </Node>
        <Node pos="r" depth="1" NCoef="0" IVar="2" Cut="1.3975011825561523e+01" cType="1" res="-9.2553220689296722e-02" rms="3.3765885233879089e-01" purity="2.1634528040885925e-01" nType="0">
          <Node pos="l" depth="2" NCoef="0" IVar="4" Cut="5.0168022155761719e+01" cType="1" res="-1.3496731221675873e-01" rms="3.0672773718833923e-01" purity="1.2712389230728149e-01" nType="0">
            <Node pos="l" depth="3" NCoef="0" IVar="-1" Cut="0.0000000000000000e+00" cType="1" res="-2.0122751593589783e-02" rms="2.9156190156936646e-01" purity="1.0631471872329712e-01" nType="-99"/>
            <Node pos="r" depth="3" NCoef="0" IVar="-1" Cut="0.0000000000000000e+00" cType="1" res="-2.5585794355720282e-03" rms="4.2030751705169678e-01" purity="3.4890773892402649e-01" nType="-99"/>
          </Node>
          <Node pos="r" depth="2" NCoef="0" IVar="3" Cut="7.6652320861816406e+01" cType="1" res="-9.9244108423590660e-03" rms="3.7750634551048279e-01" purity="3.9016157388687134e-01" nType="0">
            <Node pos="l" depth="3" NCoef="0" IVar="-1" Cut="0.0000000000000000e+00" cType="1" res="1.0660207830369473e-02" rms="4.2651584744453430e-01" purity="6.0247540473937988e-01" nType="-99"/>
            <Node pos="r" depth="3" NCoef="0" IVar="-1" Cut="0.0000000000000000e+00" cType="1" res="-2.6567289605736732e-02" rms="1.8006986379623413e-01" purity="4.0835227817296982e-02" nType="-99"/>
          </Node>
        </Node>
      </Node>
    </BinaryTree>
    <BinaryTree type="DecisionTree" boostWeight="1.0000000000000000e+00" itree="24">
      <Node pos="s" depth="0" NCoef="0" IVar="8" Cut="2.1243908405303955e+00" cType="1" res="-6.5523851662874222e-04" rms="3.3597049117088318e-01" purity="4.9940520524978638e-01" nType="0">
        <Node pos="l" depth="1" NCoef="0" IVar="3" Cut="5.8462928771972656e+01" cType="1" res="1.1350845545530319e-01" rms="3.0283918976783752e-01" purity="8.6823004484176636e-01" nType="0">
          <Node pos="l" depth="2" NCoef="0" IVar="4" Cut="1.3615095520019531e+02" cType="1" res="1.2803672254085541e-01" rms="2.8778904676437378e-01" purity="9.0106886625289917e-01" nType="0">
            <Node pos="l" depth="3" NCoef="0" IVar="-1" Cut="0.0000000000000000e+00" cType="1" res="1.9786955788731575e-02" rms="2.7444744110107422e-01" purity="9.1150224208831787e-01" nType="-99"/>
            <Node pos="r" depth="3" NCoef="0" IVar="-1" Cut="0.0000000000000000e+00" cType="1" res="-5.4149171337485313e-03" rms="4.5686364173889160e-01" purity="6.8335688114166260e-01" nType="-99"/>
          </Node>
          <Node pos="r" depth="2" NCoef="0" IVar="-1" Cut="0.0000000000000000e+00" cType="1" res="-1.0057481005787849e-02" rms="4.1389676928520203e-01" purity="4.1460290551185608e-01" nType="-99"/>
        </Node>
        <Node pos="r" depth="1" NCoef="0" IVar="4" Cut="4.6593444824218750e+01" cType="1" res="-9.1770440340042114e-02" rms="3.3326238393783569e-01" purity="2.0504242181777954e-01" nType="0">
          <Node pos="l" depth="2" NCoef="0" IVar="2" Cut="1.6780038833618164e+01" cType="1" res="-1.2819820642471313e-01" rms="3.0448827147483826e-01" purity="1.2184187769889832e-01" nType="0">
            <Node pos="l" depth="3" NCoef="0" IVar="-1" Cut="0.0000000000000000e+00" cType="1" res="-1.9488053396344185e-02" rms="2.8965580463409424e-01" purity="1.0476792603731155e-01" nType="-99"/>
            <Node pos="r" depth="3" NCoef="0" IVar="-1" Cut="0.0000000000000000e+00" cType="1" res="-2.4543360341340303e-03" rms="4.1921240091323853e-01" purity="3.0757880210876465e-01" nType="-99"/>
          </Node>
          <Node pos="r" depth="2" NCoef="0" IVar="3" Cut="8.3842887878417969e+01" cType="1" res="-8.9591406285762787e-03" rms="3.7802931666374207e-01" purity="3.9418232440948486e-01" nType="0">
            <Node pos="l" depth="3" NCoef="0" IVar="-1" Cut="0.0000000000000000e+00" cType="1" res="1.1192266829311848e-02" rms="4.4466251134872437e-01" purity="6.4244478940963745e-01" nType="-99"/>
            <Node pos="r" depth="3" NCoef="0" IVar="-1" Cut="0.0000000000000000e+00" cType="1" res="-2.9232168570160866e-02" rms="1.0129014402627945e-01" purity="1.0563868097960949e-02" nType="-99"/>
          </Node>
        </Node>
      </Node>
    </BinaryTree>
    <BinaryTree type="DecisionTree" boostWeight="1.0000000000000000e+00" itree="25">
      <Node pos="s" depth="0" NCoef="0" IVar="8" Cut="2.6436481475830078e+00" cType="1" res="-8.0272107152268291e-04" rms="3.3357003331184387e-01" purity="4.9913057684898376e-01" nType="0">
        <Node pos="l" depth="1" NCoef="0" IVar="3" Cut="7.3069328308105469e+01" cType="1" res="8.2915522158145905e-02" rms="3.3495080471038818e-01" purity="7.8037017583847046e-01" nType="0">
          <Node pos="l" depth="2" NCoef="0" IVar="4" Cut="2.4873607635498047e+01" cType="1" res="9.8301723599433899e-02" rms="3.3257934451103210e-01" purity="8.2561898231506348e-01" nType="0">
            <Node pos="l" depth="3" NCoef="0" IVar="-1" Cut="0.0000000000000000e+00" cType="1" res="-1.3544697314500809e-02" rms="4.3054494261741638e-01" purity="2.9956889152526855e-01" nType="-99"/>
            <Node pos="r" depth="3" NCoef="0" IVar="-1" Cut="0.0000000000000000e+00" cType="1" res="1.5890195965766907e-02" rms="3.1908407807350159e-01" purity="8.6183851957321167e-01" nType="-99"/>
          </Node>
          <Node pos="r" depth="2" NCoef="0" IVar="6" Cut="5.9756118774414062e+01" cType="1" res="-1.4442065358161926e-01" rms="2.8355312347412109e-01" purity="1.1180447041988373e-01" nType="0">
            <Node pos="l" depth="3" NCoef="0" IVar="-1" Cut="0.0000000000000000e+00" cType="1" res="-1.0757949203252792e-02" rms="3.8276147842407227e-01" purity="2.2100621461868286e-01" nType="-99"/>
            <Node pos="r" depth="3" NCoef="0" IVar="-1" Cut="0.0000000000000000e+00" cType="1" res="-2.7745025232434273e-02" rms="1.7275470495223999e-01" purity="3.4938074648380280e-02" nType="-99"/>
          </Node>
        </Node>
        <Node pos="r" depth="1" NCoef="0" IVar="8" Cut="2.9986743927001953e+00" cType="1" res="-1.1370918899774551e-01" rms="2.9635092616081238e-01" purity="1.1983729153871536e-01" nType="0">
          <Node pos="l" depth="2" NCoef="0" IVar="3" Cut="8.9625137329101562e+01" cType="1" res="-6.9481842219829559e-02" rms="3.7399247288703918e-01" purity="2.1712277829647064e-01" nType="0">
            <Node pos="l" depth="3" NCoef="0" IVar="-1" Cut="0.0000000000000000e+00" cType="1" res="-5.7272301055490971e-03" rms="4.0276682376861572e-01" purity="2.5762689113616943e-01" nType="-99"/>
            <Node pos="r" depth="3" NCoef="0" IVar="-1" Cut="0.0000000000000000e+00" cType="1" res="-3.0347308143973351e-02" rms="7.1871034801006317e-02" purity="5.0459969788789749e-03" nType="-99"/>
          </Node>
          <Node pos="r" depth="2" NCoef="0" IVar="3" Cut="5.7149021148681641e+01" cType="1" res="-1.3705585896968842e-01" rms="2.4242939054965973e-01" purity="6.8482361733913422e-02" nType="0">
            <Node pos="l" depth="3" NCoef="0" IVar="-1" Cut="0.0000000000000000e+00" cType="1" res="-2.3817552253603935e-02" rms="2.2096119821071625e-01" purity="5.2848167717456818e-02" nType="-99"/>
            <Node pos="r" depth="3" NCoef="0" IVar="-1" Cut="0.0000000000000000e+00" cType="1" res="-1.9316945225000381e-02" rms="2.5639089941978455e-01" purity="8.0115303397178650e-02" nType="-99"/>
          </Node>
        </Node>
      </Node>
    </BinaryTree>
    <BinaryTree type="DecisionTree" boostWeight="1.0000000000000000e+00" itree="26">
      <Node pos="s" depth="0" NCoef="0" IVar="8" Cut="2.5962443351745605e+00" cType="1" res="1.4429184375330806e-04" rms="3.3173701167106628e-01" purity="5.0051671266555786e-01" nType="0">
        <Node pos="l" depth="1" NCoef="0" IVar="3" Cut="4.1799369812011719e+01" cType="1" res="8.2168735563755035e-02" rms="3.3103579282760620e-01" purity="7.9252284765243530e-01" nType="0">
          <Node pos="l" depth="2" NCoef="0" IVar="7" Cut="3.0823802947998047e+01" cType="1" res="1.3190351426601410e-01" rms="2.6109632849693298e-01" purity="9.1631406545639038e-01" nType="0">
            <Node pos="l" depth="3" NCoef="0" IVar="-1" Cut="0.0000000000000000e+00" cType="1" res="8.9076836593449116e-04" rms="4.0175321698188782e-01" purity="6.5994518995285034e-01" nType="-99"/>
            <Node pos="r" depth="3" NCoef="0" IVar="-1" Cut="0.0000000000000000e+00" cType="1" res="2.1415753290057182e-02" rms="2.4769571423530579e-01" purity="9.3222987651824951e-01" nType="-99"/>
          </Node>
          <Node pos="r" depth="2" NCoef="0" IVar="4" Cut="1.2233516693115234e+02" cType="1" res="1.7777634784579277e-02" rms="3.9478284120559692e-01" purity="6.3225156068801880e-01" nType="0">
            <Node pos="l" depth="3" NCoef="0" IVar="-1" Cut="0.0000000000000000e+00" cType="1" res="5.0981752574443817e-03" rms="3.9278790354728699e-01" purity="6.7274320125579834e-01" nType="-99"/>
            <Node pos="r" depth="3" NCoef="0" IVar="-1" Cut="0.0000000000000000e+00" cType="1" res="-2.7897570282220840e-02" rms="3.4248062968254089e-01" purity="2.3510225117206573e-01" nType="-99"/>
          </Node>
        </Node>
        <Node pos="r" depth="1" NCoef="0" IVar="8" Cut="3.0013186931610107e+00" cType="1" res="-1.0475602746009827e-01" rms="3.0172061920166016e-01" purity="1.2707263231277466e-01" nType="0">
          <Node pos="l" depth="2" NCoef="0" IVar="3" Cut="9.1000236511230469e+01" cType="1" res="-6.0689829289913177e-02" rms="3.7889236211776733e-01" purity="2.2766202688217163e-01" nType="0">
            <Node pos="l" depth="3" NCoef="0" IVar="-1" Cut="0.0000000000000000e+00" cType="1" res="-4.7773043625056744e-03" rms="4.0706241130828857e-01" purity="2.6843425631523132e-01" nType="-99"/>
            <Node pos="r" depth="3" NCoef="0" IVar="-1" Cut="0.0000000000000000e+00" cType="1" res="-2.9723048210144043e-02" rms="8.0289147794246674e-02" purity="6.3845925033092499e-03" nType="-99"/>
          </Node>
          <Node pos="r" depth="2" NCoef="0" IVar="3" Cut="9.6787719726562500e+01" cType="1" res="-1.3056619465351105e-01" rms="2.4180105328559875e-01" purity="6.8156048655509949e-02" nType="0">
            <Node pos="l" depth="3" NCoef="0" IVar="-1" Cut="0.0000000000000000e+00" cType="1" res="-1.9184933975338936e-02" rms="2.6424914598464966e-01" purity="8.1816256046295166e-02" nType="-99"/>
            <Node pos="r" depth="3" NCoef="0" IVar="-1" Cut="0.0000000000000000e+00" cType="1" res="-2.9718970879912376e-02" rms="4.1866045445203781e-02" purity="1.6392046818509698e-03" nType="-99"/>
          </Node>
        </Node>
      </Node>
    </BinaryTree>
    <BinaryTree type="DecisionTree" boostWeight="1.0000000000000000e+00" itree="27">
      <Node pos="s" depth="0" NCoef="0" IVar="8" Cut="2.1129729747772217e+00" cType="1" res="-5.6602567201480269e-04" rms="3.3005762100219727e-01" purity="4.9915069341659546e-01" nType="0">
        <Node pos="l" depth="1" NCoef="0" IVar="3" Cut="5.0829372406005859e+01" cType="1" res="9.8460309207439423e-02" rms="3.0106624960899353e-01" purity="8.6882972717285156e-01" nType="0">
          <Node pos="l" depth="2" NCoef="0" IVar="4" Cut="1.3106120300292969e+02" cType="1" res="1.1847600340843201e-01" rms="2.7366781234741211e-01" purity="9.1283869743347168e-01" nType="0">
            <Node pos="l" depth="3" NCoef="0" IVar="-1" Cut="0.0000000000000000e+00" cType="1" res="1.9733116030693054e-02" rms="2.5869348645210266e-01" purity="9.2324244976043701e-01" nType="-99"/>
            <Node pos="r" depth="3" NCoef="0" IVar="-1" Cut="0.0000000000000000e+00" cType="1" res="1.3024195795878768e-03" rms="4.1660457849502563e-01" purity="7.6746994256973267e-01" nType="-99"/>
          </Node>
          <Node pos="r" depth="2" NCoef="0" IVar="4" Cut="1.1249637603759766e+02" cType="1" res="-2.2130694240331650e-02" rms="4.1055658459663391e-01" purity="6.0368293523788452e-01" nType="0">
            <Node pos="l" depth="3" NCoef="0" IVar="-1" Cut="0.0000000000000000e+00" cType="1" res="4.6522798947989941e-03" rms="4.0634912252426147e-01" purity="7.2112101316452026e-01" nType="-99"/>
            <Node pos="r" depth="3" NCoef="0" IVar="-1" Cut="0.0000000000000000e+00" cType="1" res="-2.5630641728639603e-02" rms="3.6604467034339905e-01" purity="2.3848222196102142e-01" nType="-99"/>
          </Node>
        </Node>
        <Node pos="r" depth="1" NCoef="0" IVar="4" Cut="3.2435817718505859e+01" cType="1" res="-7.8646659851074219e-02" rms="3.3096286654472351e-01" purity="2.0766486227512360e-01" nType="0">
          <Node pos="l" depth="2" NCoef="0" IVar="4" Cut="1.8710407257080078e+01" cType="1" res="-1.2494613975286484e-01" rms="2.7145802974700928e-01" purity="8.5283912718296051e-02" nType="0">
            <Node pos="l" depth="3" NCoef="0" IVar="-1" Cut="0.0000000000000000e+00" cType="1" res="-2.2174196317791939e-02" rms="2.3639304935932159e-01" purity="6.1022356152534485e-02" nType="-99"/>
            <Node pos="r" depth="3" NCoef="0" IVar="-1" Cut="0.0000000000000000e+00" cType="1" res="-1.4923172071576118e-02" rms="3.1738060712814331e-01" purity="1.2335013598203659e-01" nType="-99"/>
          </Node>
          <Node pos="r" depth="2" NCoef="0" IVar="3" Cut="8.4086578369140625e+01" cType="1" res="-2.2703193128108978e-02" rms="3.8357570767402649e-01" purity="3.5553723573684692e-01" nType="0">
            <Node pos="l" depth="3" NCoef="0" IVar="-1" Cut="0.0000000000000000e+00" cType="1" res="4.3468791991472244e-03" rms="4.4253912568092346e-01" purity="5.0943386554718018e-01" nType="-99"/>
            <Node pos="r" depth="3" NCoef="0" IVar="-1" Cut="0.0000000000000000e+00" cType="1" res="-2.7969866991043091e-02" rms="1.1059348285198212e-01" purity="1.2844210490584373e-02" nType="-99"/>
          </Node>
        </Node>
      </Node>
    </BinaryTree>
    <BinaryTree type="DecisionTree" boostWeight="1.0000000000000000e+00" itree="28">
      <Node pos="s" depth="0" NCoef="0" IVar="8" Cut="2.7002463340759277e+00" cType="1" res="-6.2960281502455473e-04" rms="3.2786265015602112e-01" purity="4.9879422783851624e-01" nType="0">
        <Node pos="l" depth="1" NCoef="0" IVar="3" Cut="7.3069328308105469e+01" cType="1" res="6.9460645318031311e-02" rms="3.3552515506744385e-01" purity="7.6619791984558105e-01" nType="0">
          <Node pos="l" depth="2" NCoef="0" IVar="4" Cut="2.5448778152465820e+01" cType="1" res="8.4516666829586029e-02" rms="3.3444783091545105e-01" purity="8.1583184003829956e-01" nType="0">
            <Node pos="l" depth="3" NCoef="0" IVar="-1" Cut="0.0000000000000000e+00" cType="1" res="-1.2544649653136730e-02" rms="4.2370098829269409e-01" purity="2.9083514213562012e-01" nType="-99"/>
            <Node pos="r" depth="3" NCoef="0" IVar="-1" Cut="0.0000000000000000e+00" cType="1" res="1.4545314945280552e-02" rms="3.2125055789947510e-01" purity="8.5740810632705688e-01" nType="-99"/>
          </Node>
          <Node pos="r" depth="2" NCoef="0" IVar="6" Cut="5.4749759674072266e+01" cType="1" res="-1.2811179459095001e-01" rms="2.8291207551956177e-01" purity="1.1487717181444168e-01" nType="0">
            <Node pos="l" depth="3" NCoef="0" IVar="-1" Cut="0.0000000000000000e+00" cType="1" res="-7.8758681192994118e-03" rms="3.9105772972106934e-01" purity="2.4026378989219666e-01" nType="-99"/>
            <Node pos="r" depth="3" NCoef="0" IVar="-1" Cut="0.0000000000000000e+00" cType="1" res="-2.6263119652867317e-02" rms="1.8378862738609314e-01" purity="4.2163375765085220e-02" nType="-99"/>
          </Node>
        </Node>
        <Node pos="r" depth="1" NCoef="0" IVar="2" Cut="1.2144607543945312e+01" cType="1" res="-1.0243409872055054e-01" rms="2.8742128610610962e-01" purity="1.1039647459983826e-01" nType="0">
          <Node pos="l" depth="2" NCoef="0" IVar="7" Cut="2.3548435211181641e+01" cType="1" res="-1.1867263168096542e-01" rms="2.6672616600990295e-01" purity="8.6064018309116364e-02" nType="0">
            <Node pos="l" depth="3" NCoef="0" IVar="-1" Cut="0.0000000000000000e+00" cType="1" res="-2.0609185099601746e-02" rms="2.4811987578868866e-01" purity="6.9673612713813782e-02" nType="-99"/>
            <Node pos="r" depth="3" NCoef="0" IVar="-1" Cut="0.0000000000000000e+00" cType="1" res="-4.4988514855504036e-03" rms="3.7854993343353271e-01" purity="2.2382023930549622e-01" nType="-99"/>
          </Node>
          <Node pos="r" depth="2" NCoef="0" IVar="3" Cut="8.3886322021484375e+01" cType="1" res="-5.6366626173257828e-02" rms="3.3507463335990906e-01" purity="1.7942576110363007e-01" nType="0">
            <Node pos="l" depth="3" NCoef="0" IVar="-1" Cut="0.0000000000000000e+00" cType="1" res="2.0451955497264862e-03" rms="4.2413827776908875e-01" purity="3.1070211529731750e-01" nType="-99"/>
            <Node pos="r" depth="3" NCoef="0" IVar="-1" Cut="0.0000000000000000e+00" cType="1" res="-2.8062080964446068e-02" rms="9.5727741718292236e-02" purity="9.5121320337057114e-03" nType="-99"/>
          </Node>
        </Node>
      </Node>
    </BinaryTree>
    <BinaryTree type="DecisionTree" boostWeight="1.0000000000000000e+00" itree="29">
      <Node pos="s" depth="0" NCoef="0" IVar="8" Cut="2.0367345809936523e+00" cType="1" res="3.5017117625102401e-04" rms="3.2663094997406006e-01" purity="5.0050187110900879e-01" nType="0">
        <Node pos="l" depth="1" NCoef="0" IVar="4" Cut="1.4181335449218750e+02" cType="1" res="9.3762382864952087e-02" rms="2.9469719529151917e-01" purity="8.7719351053237915e-01" nType="0">
          <Node pos="l" depth="2" NCoef="0" IVar="3" Cut="4.6105152130126953e+01" cType="1" res="1.0330808907747269e-01" rms="2.8395214676856995e-01" purity="8.9320617914199829e-01" nType="0">
            <Node pos="l" depth="3" NCoef="0" IVar="-1" Cut="0.0000000000000000e+00" cType="1" res="1.9797148182988167e-02" rms="2.5026485323905945e-01" purity="9.2980945110321045e-01" nType="-99"/>
            <Node pos="r" depth="3" NCoef="0" IVar="-1" Cut="0.0000000000000000e+00" cType="1" res="3.5474724136292934e-03" rms="3.8791397213935852e-01" purity="7.3630112409591675e-01" nType="-99"/>
          </Node>
          <Node pos="r" depth="2" NCoef="0" IVar="-1" Cut="0.0000000000000000e+00" cType="1" res="-1.9256388768553734e-02" rms="4.2814299464225769e-01" purity="4.7432234883308411e-01" nType="-99"/>
        </Node>
        <Node pos="r" depth="1" NCoef="0" IVar="2" Cut="1.4508892059326172e+01" cType="1" res="-6.8458646535873413e-02" rms="3.3187493681907654e-01" purity="2.2302523255348206e-01" nType="0">
          <Node pos="l" depth="2" NCoef="0" IVar="4" Cut="5.6147872924804688e+01" cType="1" res="-1.0401973873376846e-01" rms="3.0679684877395630e-01" purity="1.2961541116237640e-01" nType="0">
            <Node pos="l" depth="3" NCoef="0" IVar="-1" Cut="0.0000000000000000e+00" cType="1" res="-1.6924167051911354e-02" rms="2.9799410700798035e-01" purity="1.1515772342681885e-01" nType="-99"/>
            <Node pos="r" depth="3" NCoef="0" IVar="-1" Cut="0.0000000000000000e+00" cType="1" res="1.1461365502327681e-03" rms="4.0467941761016846e-01" purity="3.5553878545761108e-01" nType="-99"/>
          </Node>
          <Node pos="r" depth="2" NCoef="0" IVar="3" Cut="7.7171386718750000e+01" cType="1" res="2.0049412269145250e-03" rms="3.6661532521247864e-01" purity="4.0811493992805481e-01" nType="0">
            <Node pos="l" depth="3" NCoef="0" IVar="-1" Cut="0.0000000000000000e+00" cType="1" res="9.9739897996187210e-03" rms="4.2080867290496826e-01" purity="6.2307298183441162e-01" nType="-99"/>
            <Node pos="r" depth="3" NCoef="0" IVar="-1" Cut="0.0000000000000000e+00" cType="1" res="-2.4582859128713608e-02" rms="1.7207545042037964e-01" purity="3.7207320332527161e-02" nType="-99"/>
          </Node>
        </Node>
      </Node>
    </BinaryTree>
    <BinaryTree type="DecisionTree" boostWeight="1.0000000000000000e+00" itree="30">
      <Node pos="s" depth="0" NCoef="0" IVar="4" Cut="4.8424335479736328e+01" cType="1" res="-1.2734832125715911e-04" rms="3.2426616549491882e-01" purity="4.9994301795959473e-01" nType="0">
        <Node pos="l" depth="1" NCoef="0" IVar="8" Cut="1.7593314647674561e+00" cType="1" res="-8.9583195745944977e-02" rms="3.1942787766456604e-01" purity="1.7068049311637878e-01" nType="0">
          <Node pos="l" depth="2" NCoef="0" IVar="-1" Cut="0.0000000000000000e+00" cType="1" res="1.0096545331180096e-02" rms="3.9847183227539062e-01" purity="7.6300871372222900e-01" nType="-99"/>
          <Node pos="r" depth="2" NCoef="0" IVar="2" Cut="1.9456110000610352e+01" cType="1" res="-9.8459228873252869e-02" rms="3.1225547194480896e-01" purity="1.4018177986145020e-01" nType="0">
            <Node pos="l" depth="3" NCoef="0" IVar="-1" Cut="0.0000000000000000e+00" cType="1" res="-1.6169659793376923e-02" rms="3.0229941010475159e-01" purity="1.2580788135528564e-01" nType="-99"/>
            <Node pos="r" depth="3" NCoef="0" IVar="-1" Cut="0.0000000000000000e+00" cType="1" res="1.7802731599658728e-03" rms="4.2671939730644226e-01" purity="3.7040123343467712e-01" nType="-99"/>
          </Node>
        </Node>
        <Node pos="r" depth="1" NCoef="0" IVar="3" Cut="7.6598266601562500e+01" cType="1" res="6.6758625209331512e-02" rms="3.1148049235343933e-01" purity="7.4613201618194580e-01" nType="0">
          <Node pos="l" depth="2" NCoef="0" IVar="4" Cut="1.4013584899902344e+02" cType="1" res="9.8581708967685699e-02" rms="3.1661781668663025e-01" purity="8.5975658893585205e-01" nType="0">
            <Node pos="l" depth="3" NCoef="0" IVar="-1" Cut="0.0000000000000000e+00" cType="1" res="1.5994640067219734e-02" rms="3.0838367342948914e-01" purity="8.6986231803894043e-01" nType="-99"/>
            <Node pos="r" depth="3" NCoef="0" IVar="-1" Cut="0.0000000000000000e+00" cType="1" res="-1.4776893891394138e-02" rms="4.5007938146591187e-01" purity="5.6378293037414551e-01" nType="-99"/>
          </Node>
